{"learner":{"attributes":{"scikit_learn":"{\"_estimator_type\": \"regressor\"}"},"feature_names":["GridPosition","BestQ_normalized","GapToPole_sec","GapToPole_pct","QualiGapToTeammate_sec","QualiGapToFastest_sec","MedianLap_normalized","MedianLapGapToFastest_sec","NumPitStops","StartCompound","NumSafetyCarLaps","Rainfall","AirTemp","TrackTemp","RollingAvgPos_5","RollingAvgPos_10","SeasonPoints_before","SeasonWins_before","SeasonPodiums_before","SeasonDNF_rate","WDC_Standing_before","WCC_Standing_before","TeamSeasonPoints_before","TeamSeasonPodiums_before","DriverCircuitRaces_before","DriverCircuitAvgPos_before","DriverCircuitBestPos_before","CareerRaces_before","CareerWins_before","CareerPodiums_before","SprintPosition","IsSprintWeekend"],"feature_types":["int","float","float","float","float","float","float","float","int","int","int","int","float","float","float","float","float","int","int","float","float","int","float","int","int","float","float","int","int","int","float","int"],"gradient_booster":{"model":{"cats":{"enc":[],"feature_segments":[],"sorted_idx":[]},"gbtree_model_param":{"num_parallel_tree":"1","num_trees":"300"},"iteration_indptr":[0,1,2,3,4,5,6,7,8,9,10,11,12,13,14,15,16,17,18,19,20,21,22,23,24,25,26,27,28,29,30,31,32,33,34,35,36,37,38,39,40,41,42,43,44,45,46,47,48,49,50,51,52,53,54,55,56,57,58,59,60,61,62,63,64,65,66,67,68,69,70,71,72,73,74,75,76,77,78,79,80,81,82,83,84,85,86,87,88,89,90,91,92,93,94,95,96,97,98,99,100,101,102,103,104,105,106,107,108,109,110,111,112,113,114,115,116,117,118,119,120,121,122,123,124,125,126,127,128,129,130,131,132,133,134,135,136,137,138,139,140,141,142,143,144,145,146,147,148,149,150,151,152,153,154,155,156,157,158,159,160,161,162,163,164,165,166,167,168,169,170,171,172,173,174,175,176,177,178,179,180,181,182,183,184,185,186,187,188,189,190,191,192,193,194,195,196,197,198,199,200,201,202,203,204,205,206,207,208,209,210,211,212,213,214,215,216,217,218,219,220,221,222,223,224,225,226,227,228,229,230,231,232,233,234,235,236,237,238,239,240,241,242,243,244,245,246,247,248,249,250,251,252,253,254,255,256,257,258,259,260,261,262,263,264,265,266,267,268,269,270,271,272,273,274,275,276,277,278,279,280,281,282,283,284,285,286,287,288,289,290,291,292,293,294,295,296,297,298,299,300],"tree_info":[0,0,0,0,0,0,0,0,0,0,0,0,0,0,0,0,0,0,0,0,0,0,0,0,0,0,0,0,0,0,0,0,0,0,0,0,0,0,0,0,0,0,0,0,0,0,0,0,0,0,0,0,0,0,0,0,0,0,0,0,0,0,0,0,0,0,0,0,0,0,0,0,0,0,0,0,0,0,0,0,0,0,0,0,0,0,0,0,0,0,0,0,0,0,0,0,0,0,0,0,0,0,0,0,0,0,0,0,0,0,0,0,0,0,0,0,0,0,0,0,0,0,0,0,0,0,0,0,0,0,0,0,0,0,0,0,0,0,0,0,0,0,0,0,0,0,0,0,0,0,0,0,0,0,0,0,0,0,0,0,0,0,0,0,0,0,0,0,0,0,0,0,0,0,0,0,0,0,0,0,0,0,0,0,0,0,0,0,0,0,0,0,0,0,0,0,0,0,0,0,0,0,0,0,0,0,0,0,0,0,0,0,0,0,0,0,0,0,0,0,0,0,0,0,0,0,0,0,0,0,0,0,0,0,0,0,0,0,0,0,0,0,0,0,0,0,0,0,0,0,0,0,0,0,0,0,0,0,0,0,0,0,0,0,0,0,0,0,0,0,0,0,0,0,0,0,0,0,0,0,0,0,0,0,0,0,0,0,0,0,0,0,0,0,0,0,0,0,0,0],"trees":[{"base_weights":[-5.6600694E-2,-3.501877E0,2.5794373E0,4.5744172E-1,-3.7974238E0,7.3132664E-1,4.1830354E0,-5.366055E0,-1.0739379E0,4.7640118E-1,-1.8498933E-1,3.5419338E0,6.538156E0,-6.7368183E0,-4.3921423E0,-2.418016E0,1.1689717E0,-3.5473447E0,8.196192E-1,4.044248E0,8.3839065E-1,2.3528028E0,7.5607405E0,-7.052766E0,-3.618107E0,-4.6866913E0,-1.5953782E0,2.8613612E-1,-2.8326275E0,2.426746E0,-1.7194686E0,-3.3513272E-1,-2.8591008E0,-9.777637E-2,2.2375944E0,-5.784388E-1,4.268197E0,-7.0399714E-1,3.9734519E0,4.2156115E-1,3.0654868E-1,8.561947E0,5.3805313E0,-3.7607178E-1,-2.1588002E-1,-3.4298357E-1,7.016455E-3,-2.4323037E-1,-8.013272E-2,-1.556932E-1,2.248894E-1,-1.10740125E-1,2.865487E-1,7.654869E-2,-1.5241852E-1,2.0306332E-1,9.026571E-3,-1.4061312E-1,3.5587884E-2,-1.6318774E-1,3.5988223E-2,-6.1873134E-2,3.9140355E-2,1.6087642E-1,-6.310224E-2,-7.096237E-2,6.23894E-2,1.8363428E-1,2.8264186E-1,8.986728E-2,-9.597343E-2,6.0988218E-2,2.6838744E-1,-4.7345113E-2,8.5988216E-2,2.123894E-1,4.4127116E-1,1.1098822E-1,3.1430683E-1],"categories":[],"categories_nodes":[],"categories_segments":[],"categories_sizes":[],"default_left":[0,0,0,0,0,0,0,0,0,0,0,0,0,0,0,0,0,0,0,0,0,0,0,0,0,0,0,0,0,0,0,0,0,0,0,0,0,0,0,0,0,0,0,0,0,0,0,0,0,0,0,0,0,0,0,0,0,0,0,0,0,0,0,0,0,0,0,0,0,0,0,0,0,0,0,0,0,0,0],"id":0,"left_children":[1,3,5,-1,7,9,11,13,15,-1,17,19,21,23,25,27,29,31,33,35,37,39,41,43,45,47,49,51,53,55,57,-1,59,61,63,65,67,69,71,73,-1,75,77,-1,-1,-1,-1,-1,-1,-1,-1,-1,-1,-1,-1,-1,-1,-1,-1,-1,-1,-1,-1,-1,-1,-1,-1,-1,-1,-1,-1,-1,-1,-1,-1,-1,-1,-1,-1],"loss_changes":[9.826544E3,1.7882754E3,1.8136438E3,0E0,1.9551519E3,2.307081E3,4.7208057E2,3.5889746E2,5.123017E2,0E0,8.8114874E2,3.4969678E2,2.7752246E2,9.173926E1,1.350376E2,1.19654724E2,2.3668506E2,1.1113379E2,2.6168842E2,2.291875E2,2.0588745E2,1.0686384E2,7.398828E1,1.046875E2,1.5934435E2,7.780078E1,1.8054845E2,2.1695105E2,9.127734E1,1.6448358E2,5.5138237E1,0E0,7.620749E1,1.2441013E2,2.7498447E2,1.8661499E1,1.5157397E2,9.161896E1,4.7205017E1,2.117043E1,0E0,3.4318848E0,4.3294434E1,0E0,0E0,0E0,0E0,0E0,0E0,0E0,0E0,0E0,0E0,0E0,0E0,0E0,0E0,0E0,0E0,0E0,0E0,0E0,0E0,0E0,0E0,0E0,0E0,0E0,0E0,0E0,0E0,0E0,0E0,0E0,0E0,0E0,0E0,0E0,0E0],"parents":[2147483647,0,0,1,1,2,2,4,4,5,5,6,6,7,7,8,8,10,10,11,11,12,12,13,13,14,14,15,15,16,16,17,17,18,18,19,19,20,20,21,21,22,22,23,23,24,24,25,25,26,26,27,27,28,28,29,29,30,30,32,32,33,33,34,34,35,35,36,36,37,37,38,38,39,39,41,41,42,42],"right_children":[2,4,6,-1,8,10,12,14,16,-1,18,20,22,24,26,28,30,32,34,36,38,40,42,44,46,48,50,52,54,56,58,-1,60,62,64,66,68,70,72,74,-1,76,78,-1,-1,-1,-1,-1,-1,-1,-1,-1,-1,-1,-1,-1,-1,-1,-1,-1,-1,-1,-1,-1,-1,-1,-1,-1,-1,-1,-1,-1,-1,-1,-1,-1,-1,-1,-1],"split_conditions":[8E0,1E0,1.491E0,4.5744172E-1,1.009383E0,1E0,1.031741E0,3E0,1.016218E0,4.7640118E-1,6.83E-1,3E0,1.58E1,1.1571E1,8E0,1.003391E0,3E0,1.25E-2,1.3E1,7.42E-1,1.02356E0,2.6316E1,2E0,3.52E-1,4.35E-2,4.34E-1,2.3E1,2.7E1,1E0,9.4E0,2E0,-3.3513272E-1,9E0,9E0,4.2E1,4E0,1.7E1,1E1,1E0,1.493E0,3.0654868E-1,1.032096E0,2E0,-3.7607178E-1,-2.1588002E-1,-3.4298357E-1,7.016455E-3,-2.4323037E-1,-8.013272E-2,-1.556932E-1,2.248894E-1,-1.10740125E-1,2.865487E-1,7.654869E-2,-1.5241852E-1,2.0306332E-1,9.026571E-3,-1.4061312E-1,3.5587884E-2,-1.6318774E-1,3.5988223E-2,-6.1873134E-2,3.9140355E-2,1.6087642E-1,-6.310224E-2,-7.096237E-2,6.23894E-2,1.8363428E-1,2.8264186E-1,8.986728E-2,-9.597343E-2,6.0988218E-2,2.6838744E-1,-4.7345113E-2,8.5988216E-2,2.123894E-1,4.4127116E-1,1.1098822E-1,3.1430683E-1],"split_indices":[0,6,7,0,6,6,6,0,6,0,7,10,12,25,20,1,10,7,0,5,1,7,10,7,19,4,29,12,8,14,24,0,30,20,16,9,0,16,24,5,0,6,9,0,0,0,0,0,0,0,0,0,0,0,0,0,0,0,0,0,0,0,0,0,0,0,0,0,0,0,0,0,0,0,0,0,0,0,0],"split_type":[0,0,0,0,0,0,0,0,0,0,0,0,0,0,0,0,0,0,0,0,0,0,0,0,0,0,0,0,0,0,0,0,0,0,0,0,0,0,0,0,0,0,0,0,0,0,0,0,0,0,0,0,0,0,0,0,0,0,0,0,0,0,0,0,0,0,0,0,0,0,0,0,0,0,0,0,0,0,0],"sum_hessian":[1.08E3,4.68E2,6.12E2,1E1,4.58E2,2.85E2,3.27E2,2.9E2,1.68E2,2.6E1,2.59E2,2.59E2,6.8E1,1.18E2,1.72E2,1.05E2,6.3E1,5.9E1,2E2,2.18E2,4.1E1,1.4E1,5.4E1,1.06E2,1.2E1,1.55E2,1.7E1,1.4E1,9.1E1,4.4E1,1.9E1,9E0,5E1,1.22E2,7.8E1,1E1,2.08E2,2.8E1,1.3E1,1E1,4E0,3.5E1,1.9E1,8.9E1,1.7E1,6E0,6E0,1.46E2,9E0,1.4E1,3E0,1E1,4E0,4E0,8.7E1,2.5E1,1.9E1,1.3E1,6E0,4.5E1,5E0,5.3E1,6.9E1,6.1E1,1.7E1,7E0,3E0,1.48E2,6E1,9E0,1.9E1,5E0,8E0,5E0,5E0,3E0,3.2E1,5E0,1.4E1],"tree_param":{"num_deleted":"0","num_feature":"32","num_nodes":"79","size_leaf_vector":"1"}},{"base_weights":[-1.0541538E-2,-3.3572924E0,2.5943637E0,-4.119879E0,1.508991E0,4.60817E-1,2.2662492E0,4.2928243E-1,-4.4311075E0,2.6369236E0,-1.5199988E0,-1.6024541E0,3.262391E0,-6.015158E0,-3.1695945E0,5.1296453E0,1.184885E0,-2.8077402E0,7.617205E-2,-3.2822254E0,1.3294825E-1,2.6105225E0,5.7120123E0,-6.8593493E0,-5.290486E0,-3.435478E0,4.6837282E-1,3.6592028E-1,9.5735943E-1,-1.6171741E-1,5.0765815E0,-3.5913615E0,-7.337594E-3,-5.2923355E0,-2.0641575E0,8.978745E-1,-1.2939599E0,9.112237E-1,3.513914E0,1.492251E0,6.4229307E0,-3.541498E-1,-1.805514E-1,-3.9328933E-2,-2.7122173E-1,1.5101607E-1,-1.7726108E-1,1.6226004E-1,-1.0259801E-1,1.3664351E-1,-5.2874554E-2,-6.442962E-2,1.3795316E-1,3.6230692E-1,5.4774534E-2,-2.1775782E-1,-9.782677E-2,-1.9645053E-1,-3.2677123E-1,-1.2164376E-1,8.851709E-2,7.4222766E-2,-9.978514E-2,3.5250515E-2,-1.07027434E-1,6.770263E-2,-6.942432E-2,1.9081733E-1,2.841413E-3,6.2756278E-3,2.1003127E-1,2.666405E-1,4.3948838E-1],"categories":[],"categories_nodes":[],"categories_segments":[],"categories_sizes":[],"default_left":[0,0,0,0,0,0,0,0,0,0,0,0,0,0,0,0,0,0,0,0,0,0,0,0,0,0,0,0,0,0,0,0,0,0,0,0,0,0,0,0,0,0,0,0,0,0,0,0,0,0,0,0,0,0,0,0,0,0,0,0,0,0,0,0,0,0,0,0,0,0,0,0,0],"id":1,"left_children":[1,3,5,7,9,-1,11,-1,13,15,17,19,21,23,25,27,29,31,-1,33,35,37,39,41,43,45,47,-1,49,51,53,55,-1,57,59,61,63,65,67,69,71,-1,-1,-1,-1,-1,-1,-1,-1,-1,-1,-1,-1,-1,-1,-1,-1,-1,-1,-1,-1,-1,-1,-1,-1,-1,-1,-1,-1,-1,-1,-1,-1],"loss_changes":[9.302065E3,1.7392358E3,1.2827739E3,1.6355918E3,2.2266383E2,0E0,2.2134426E3,0E0,7.702627E2,1.640398E2,7.482236E1,3.4441568E2,7.1324365E2,7.0157715E1,2.1634448E2,1.4823987E2,1.6327856E2,2.6580666E1,0E0,1.3598285E2,6.5559105E1,5.525156E2,2.7540625E2,3.0361816E1,5.4855957E1,1.5736353E2,1.1863553E2,0E0,2.7931705E1,8.254781E1,6.11595E1,3.9656982E0,0E0,1.1606384E1,5.9447098E1,6.915789E1,3.7047527E1,1.3121407E2,2.4652954E2,5.499736E1,1.6211719E2,0E0,0E0,0E0,0E0,0E0,0E0,0E0,0E0,0E0,0E0,0E0,0E0,0E0,0E0,0E0,0E0,0E0,0E0,0E0,0E0,0E0,0E0,0E0,0E0,0E0,0E0,0E0,0E0,0E0,0E0,0E0,0E0],"parents":[2147483647,0,0,1,1,2,2,3,3,4,4,6,6,8,8,9,9,10,10,11,11,12,12,13,13,14,14,15,15,16,16,17,17,19,19,20,20,21,21,22,22,23,23,24,24,25,25,26,26,28,28,29,29,30,30,31,31,33,33,34,34,35,35,36,36,37,37,38,38,39,39,40,40],"right_children":[2,4,6,8,10,-1,12,-1,14,16,18,20,22,24,26,28,30,32,-1,34,36,38,40,42,44,46,48,-1,50,52,54,56,-1,58,60,62,64,66,68,70,72,-1,-1,-1,-1,-1,-1,-1,-1,-1,-1,-1,-1,-1,-1,-1,-1,-1,-1,-1,-1,-1,-1,-1,-1,-1,-1,-1,-1,-1,-1,-1,-1],"split_conditions":[8E0,1.015344E0,1E0,1E0,3E0,4.60817E-1,1.049E0,4.2928243E-1,2.94E-1,2.09E1,3.9E1,9.3E0,1.029428E0,1.37E-1,7E0,6E0,1.974E0,6.4E1,7.617205E-2,1.005432E0,1E0,1.2E1,1.58E1,5E0,1.001689E0,1E0,1.1E1,3.6592028E-1,1.017916E0,6E0,1.010516E0,7.69E-2,-7.337594E-3,1E0,9E0,1E0,1.1111E1,3E0,4.7E1,1.091368E0,3.71E0,-3.541498E-1,-1.805514E-1,-3.9328933E-2,-2.7122173E-1,1.5101607E-1,-1.7726108E-1,1.6226004E-1,-1.0259801E-1,1.3664351E-1,-5.2874554E-2,-6.442962E-2,1.3795316E-1,3.6230692E-1,5.4774534E-2,-2.1775782E-1,-9.782677E-2,-1.9645053E-1,-3.2677123E-1,-1.2164376E-1,8.851709E-2,7.4222766E-2,-9.978514E-2,3.5250515E-2,-1.07027434E-1,6.770263E-2,-6.942432E-2,1.9081733E-1,2.841413E-3,6.2756278E-3,2.1003127E-1,2.666405E-1,4.3948838E-1],"split_indices":[0,6,6,6,10,0,7,0,7,12,27,15,6,5,21,0,7,16,0,6,30,0,12,24,1,8,22,0,6,29,1,19,0,17,30,11,15,10,16,6,7,0,0,0,0,0,0,0,0,0,0,0,0,0,0,0,0,0,0,0,0,0,0,0,0,0,0,0,0,0,0,0,0],"split_type":[0,0,0,0,0,0,0,0,0,0,0,0,0,0,0,0,0,0,0,0,0,0,0,0,0,0,0,0,0,0,0,0,0,0,0,0,0,0,0,0,0,0,0,0,0,0,0,0,0,0,0,0,0,0,0,0,0,0,0,0,0,0,0,0,0,0,0,0,0,0,0,0,0],"sum_hessian":[1.065E3,4.66E2,5.99E2,4.03E2,6.3E1,2.7E1,5.72E2,9E0,3.94E2,4.6E1,1.7E1,1.17E2,4.55E2,1.73E2,2.21E2,1.6E1,3E1,1.2E1,5E0,5.9E1,5.8E1,3.61E2,9.4E1,7.6E1,9.7E1,2.06E2,1.5E1,1E1,6E0,2.3E1,7E0,9E0,3E0,2.1E1,3.8E1,3.8E1,2E1,1.26E2,2.35E2,1.4E1,8E1,7E1,6E0,3E0,9.4E1,3E0,2.03E2,7E0,8E0,3E0,3E0,1.7E1,6E0,4E0,3E0,5E0,4E0,1.2E1,9E0,3.5E1,3E0,3.2E1,6E0,6E0,1.4E1,1.06E2,2E1,2.16E2,1.9E1,1E1,4E0,5.7E1,2.3E1],"tree_param":{"num_deleted":"0","num_feature":"32","num_nodes":"73","size_leaf_vector":"1"}},{"base_weights":[-7.310286E-2,-2.6267123E0,2.5093899E0,5.3105206E0,-3.4851243E0,1.6058227E0,4.9161363E0,7.5340247E0,-3.8641336E0,-5.118716E0,-1.8506433E0,2.238984E-1,2.6663742E0,8.0767125E-1,5.5670295E0,4.3335825E-1,4.682812E-1,-5.8503747E-3,-2.62734E-1,-6.698413E0,-4.2420306E0,-2.597842E0,2.5848934E-1,-1.3108792E0,1.1629233E0,3.0689433E0,7.780898E-1,-1.1053832E0,2.887269E-1,4.524242E0,4.0596095E-1,3.2850608E-1,-2.8753147E-1,-3.4094974E-1,-1.2759438E-1,1.7549583E-1,-4.4647255E0,-4.2598276E0,-2.1702437E0,3.3922095E0,-6.6826147E-1,1.379744E0,-1.9461099E0,5.9521884E-1,2.8868134E0,3.920344E0,2.4008834E0,2.4007342E0,-1.3385162E0,2.6181662E-1,-2.1978517E0,5.496123E0,1.4118932E0,-2.7327946E-1,-1.8693566E-1,-1.4908653E-1,-2.4688147E-1,-1.5767885E-2,-1.239671E-1,4.294997E-2,2.4927859E-1,-4.8444904E-2,1.5532216E-1,1.879756E-1,-1.0116185E-1,1.108156E-1,-1.2623192E-1,-1.4585522E-2,6.38199E-2,2.9701477E-1,8.3687715E-2,2.1789081E-1,2.5487695E-2,-5.781215E-2,1.3347517E-1,-3.229137E-2,1.8869846E-1,5.3345948E-3,-1.2526761E-1,7.39341E-2,-6.623596E-2,-2.2006234E-2,-1.7580041E-1,2.859042E-1,2.2986604E-2,1.1575395E-1,-7.664895E-2],"categories":[],"categories_nodes":[],"categories_segments":[],"categories_sizes":[],"default_left":[0,0,0,0,0,0,0,0,0,0,0,0,0,0,0,0,0,0,0,0,0,0,0,0,0,0,0,0,0,0,0,0,0,0,0,0,0,0,0,0,0,0,0,0,0,0,0,0,0,0,0,0,0,0,0,0,0,0,0,0,0,0,0,0,0,0,0,0,0,0,0,0,0,0,0,0,0,0,0,0,0,0,0,0,0,0,0],"id":2,"left_children":[1,3,5,7,9,11,13,15,17,19,21,23,25,27,29,-1,31,-1,-1,33,35,37,39,41,43,45,47,49,-1,51,-1,-1,-1,-1,-1,-1,53,55,57,59,61,63,65,67,69,71,73,75,77,79,81,83,85,-1,-1,-1,-1,-1,-1,-1,-1,-1,-1,-1,-1,-1,-1,-1,-1,-1,-1,-1,-1,-1,-1,-1,-1,-1,-1,-1,-1,-1,-1,-1,-1,-1,-1],"loss_changes":[7.069491E3,3.690939E3,1.1511975E3,1.1103062E3,1.290853E3,5.695222E2,3.8325854E2,3.4021973E2,5.670125E1,3.0811523E2,3.867771E2,2.4652753E2,1.6484814E2,2.059227E2,2.9594043E2,0E0,3.0340994E2,0E0,0E0,2.5098389E1,2.9015552E2,1.1938501E2,1.910384E2,1.13780945E2,1.020197E2,9.353821E1,1.4059338E2,2.4473392E1,0E0,2.6749963E2,0E0,0E0,0E0,0E0,0E0,0E0,9.2194824E1,1.646405E1,8.2926025E1,5.6262222E1,6.0885365E1,1.1288435E2,1.3322363E2,4.93091E1,8.636282E1,1.1415759E2,1.0246008E2,9.866116E1,3.0621075E1,1.740364E1,1.930515E1,7.450537E1,6.472359E1,0E0,0E0,0E0,0E0,0E0,0E0,0E0,0E0,0E0,0E0,0E0,0E0,0E0,0E0,0E0,0E0,0E0,0E0,0E0,0E0,0E0,0E0,0E0,0E0,0E0,0E0,0E0,0E0,0E0,0E0,0E0,0E0,0E0,0E0],"parents":[2147483647,0,0,1,1,2,2,3,3,4,4,5,5,6,6,7,7,8,8,9,9,10,10,11,11,12,12,13,13,14,14,16,16,19,19,20,20,21,21,22,22,23,23,24,24,25,25,26,26,27,27,29,29,36,36,37,37,38,38,39,39,40,40,41,41,42,42,43,43,44,44,45,45,46,46,47,47,48,48,49,49,50,50,51,51,52,52],"right_children":[2,4,6,8,10,12,14,16,18,20,22,24,26,28,30,-1,32,-1,-1,34,36,38,40,42,44,46,48,50,-1,52,-1,-1,-1,-1,-1,-1,54,56,58,60,62,64,66,68,70,72,74,76,78,80,82,84,86,-1,-1,-1,-1,-1,-1,-1,-1,-1,-1,-1,-1,-1,-1,-1,-1,-1,-1,-1,-1,-1,-1,-1,-1,-1,-1,-1,-1,-1,-1,-1,-1,-1,-1],"split_conditions":[1.107E0,1E0,2.222E0,5.1E-2,4.61E-1,1.4758E0,1.58E1,1E0,2.2E1,1.85E-2,9E0,8E0,1E0,9E0,3.445E0,4.3335825E-1,1E0,-5.8503747E-3,-2.62734E-1,4.3E1,3.7E-2,4.714E0,7.14E-2,5.7E0,1.8265E0,8.33E-2,2E0,1E0,2.887269E-1,3E0,4.0596095E-1,3.2850608E-1,-2.8753147E-1,-3.4094974E-1,-1.2759438E-1,1.7549583E-1,2.32E-1,2E0,3E0,4.667E0,1.7E1,6.2E0,7E0,1.1E1,1.914E0,3E0,1.176E0,8.7E-2,9.1E1,1.3667E1,1.018854E0,9E1,3.1E1,-2.7327946E-1,-1.8693566E-1,-1.4908653E-1,-2.4688147E-1,-1.5767885E-2,-1.239671E-1,4.294997E-2,2.4927859E-1,-4.8444904E-2,1.5532216E-1,1.879756E-1,-1.0116185E-1,1.108156E-1,-1.2623192E-1,-1.4585522E-2,6.38199E-2,2.9701477E-1,8.3687715E-2,2.1789081E-1,2.5487695E-2,-5.781215E-2,1.3347517E-1,-3.229137E-2,1.8869846E-1,5.3345948E-3,-1.2526761E-1,7.39341E-2,-6.623596E-2,-2.2006234E-2,-1.7580041E-1,2.859042E-1,2.2986604E-2,1.1575395E-1,-7.664895E-2],"split_indices":[7,8,7,7,7,3,12,17,27,7,20,20,18,20,7,0,10,0,0,28,7,15,19,15,7,19,10,22,0,10,0,0,0,0,0,0,2,8,20,25,20,25,22,20,7,10,2,19,22,15,1,16,16,0,0,0,0,0,0,0,0,0,0,0,0,0,0,0,0,0,0,0,0,0,0,0,0,0,0,0,0,0,0,0,0,0,0],"split_type":[0,0,0,0,0,0,0,0,0,0,0,0,0,0,0,0,0,0,0,0,0,0,0,0,0,0,0,0,0,0,0,0,0,0,0,0,0,0,0,0,0,0,0,0,0,0,0,0,0,0,0,0,0,0,0,0,0,0,0,0,0,0,0,0,0,0,0,0,0,0,0,0,0,0,0,0,0,0,0,0,0,0,0,0,0,0,0],"sum_hessian":[1.07E3,5.38E2,5.32E2,5.2E1,4.86E2,3.88E2,1.44E2,4.2E1,1E1,2.42E2,2.44E2,1.69E2,2.19E2,2E1,1.24E2,3.6E1,6E0,3E0,7E0,8.4E1,1.58E2,1.8E2,6.4E1,6.4E1,1.05E2,1.8E2,3.9E1,1.5E1,5E0,9E1,3.4E1,3E0,3E0,8.1E1,3E0,4E0,1.54E2,3.5E1,1.45E2,1.4E1,5E1,1.2E1,5.2E1,8E1,2.5E1,7.7E1,1.03E2,2.2E1,1.7E1,7E0,8E0,6.8E1,2.2E1,6.2E1,9.2E1,1.4E1,2.1E1,2.1E1,1.24E2,6E0,8E0,4.7E1,3E0,7E0,5E0,6E0,4.6E1,3.5E1,4.5E1,6E0,1.9E1,6.8E1,9E0,7E0,9.6E1,7E0,1.5E1,8E0,9E0,4E0,3E0,4E0,4E0,6.5E1,3E0,1.7E1,5E0],"tree_param":{"num_deleted":"0","num_feature":"32","num_nodes":"87","size_leaf_vector":"1"}},{"base_weights":[1.2423218E-1,-3.4114366E0,2.164058E0,4.053266E-1,-3.6665263E0,1.0408257E0,4.110139E0,-4.941728E0,-1.2204341E0,4.1646114E-1,4.899007E-1,3.661795E0,6.487888E0,-6.1300654E0,-4.138211E0,3.603371E-1,-1.5303996E0,-2.5754745E0,1.2021675E0,3.0498738E0,5.166678E0,1.8153818E0,3.9145634E-1,-6.478661E0,-2.6572628E0,-4.621855E0,-2.180826E0,-2.2387612E0,2.1617478E-1,-2.0337752E-1,-3.2332165E0,-5.7534385E-1,2.0161414E0,1.6697308E0,3.543701E0,3.7873535E0,5.901865E0,2.0091271E-1,-1.6145444E-2,-3.3216572E-1,-1.1425122E-1,1.17130674E-1,-2.4125214E-1,-2.7239475E-1,-1.7868538E-1,-2.0533147E-1,5.4892134E-2,1.6861226E-1,-1.2303986E-1,-5.2029308E-2,1.7549007E-1,2.6718456E-2,-1.1141963E-1,-3.057421E-1,-1.3732174E-1,4.0897112E-2,-6.2232237E-2,1.2818137E-1,9.213468E-3,1.3378559E-1,-9.754709E-3,1.9684954E-1,7.491946E-2,2.20365E-1,2.7504845E-2,3.124686E-1,1.1792233E-1],"categories":[],"categories_nodes":[],"categories_segments":[],"categories_sizes":[],"default_left":[0,0,0,0,0,0,0,0,0,0,0,0,0,0,0,0,0,0,0,0,0,0,0,0,0,0,0,0,0,0,0,0,0,0,0,0,0,0,0,0,0,0,0,0,0,0,0,0,0,0,0,0,0,0,0,0,0,0,0,0,0,0,0,0,0,0,0],"id":3,"left_children":[1,3,5,-1,7,9,11,13,15,-1,17,19,21,23,25,-1,27,29,31,33,35,37,-1,39,41,43,45,47,49,51,53,55,57,59,61,63,65,-1,-1,-1,-1,-1,-1,-1,-1,-1,-1,-1,-1,-1,-1,-1,-1,-1,-1,-1,-1,-1,-1,-1,-1,-1,-1,-1,-1,-1,-1],"loss_changes":[7.904685E3,1.2079072E3,1.5149229E3,0E0,1.2198384E3,1.7707087E3,2.4701953E2,2.209834E2,3.6627942E2,0E0,9.0264246E2,1.8315015E2,2.3019812E2,1.0626587E2,1.3854883E2,0E0,1.637952E2,1.2104022E2,4.8585406E2,1.0040503E2,3.950525E1,4.8401337E1,0E0,4.8345703E1,1.3052817E2,8.875708E1,2.1287277E2,1.2540787E2,1.6508499E2,2.808185E1,6.8772095E1,9.986599E1,2.3020013E2,8.118909E1,8.580249E1,4.574179E1,3.20531E1,0E0,0E0,0E0,0E0,0E0,0E0,0E0,0E0,0E0,0E0,0E0,0E0,0E0,0E0,0E0,0E0,0E0,0E0,0E0,0E0,0E0,0E0,0E0,0E0,0E0,0E0,0E0,0E0,0E0,0E0],"parents":[2147483647,0,0,1,1,2,2,4,4,5,5,6,6,7,7,8,8,10,10,11,11,12,12,13,13,14,14,16,16,17,17,18,18,19,19,20,20,21,21,23,23,24,24,25,25,26,26,27,27,28,28,29,29,30,30,31,31,32,32,33,33,34,34,35,35,36,36],"right_children":[2,4,6,-1,8,10,12,14,16,-1,18,20,22,24,26,-1,28,30,32,34,36,38,-1,40,42,44,46,48,50,52,54,56,58,60,62,64,66,-1,-1,-1,-1,-1,-1,-1,-1,-1,-1,-1,-1,-1,-1,-1,-1,-1,-1,-1,-1,-1,-1,-1,-1,-1,-1,-1,-1,-1,-1],"split_conditions":[7E0,1E0,1.02058E0,4.053266E-1,6.725E-1,1E0,3.5465E0,8.8E-2,1E0,4.1646114E-1,7.445E-1,1.7E1,2.05E1,5E0,2E0,3.603371E-1,1.016426E0,9E0,1E1,1.925E0,5E0,1.4E1,3.9145634E-1,4E0,2E0,3.635E-1,1.12E2,1.007503E0,5.3E1,5E0,1.25E-2,1E0,3E1,1.5E-1,4E0,4E0,1E0,2.0091271E-1,-1.6145444E-2,-3.3216572E-1,-1.1425122E-1,1.17130674E-1,-2.4125214E-1,-2.7239475E-1,-1.7868538E-1,-2.0533147E-1,5.4892134E-2,1.6861226E-1,-1.2303986E-1,-5.2029308E-2,1.7549007E-1,2.6718456E-2,-1.1141963E-1,-3.057421E-1,-1.3732174E-1,4.0897112E-2,-6.2232237E-2,1.2818137E-1,9.213468E-3,1.3378559E-1,-9.754709E-3,1.9684954E-1,7.491946E-2,2.20365E-1,2.7504845E-2,3.124686E-1,1.1792233E-1],"split_indices":[0,6,6,0,7,6,7,7,8,0,7,0,13,0,30,0,6,16,0,7,22,27,0,8,8,7,16,6,27,29,7,29,16,19,9,9,18,0,0,0,0,0,0,0,0,0,0,0,0,0,0,0,0,0,0,0,0,0,0,0,0,0,0,0,0,0,0],"split_type":[0,0,0,0,0,0,0,0,0,0,0,0,0,0,0,0,0,0,0,0,0,0,0,0,0,0,0,0,0,0,0,0,0,0,0,0,0,0,0,0,0,0,0,0,0,0,0,0,0,0,0,0,0,0,0,0,0,0,0,0,0,0,0,0,0,0,0],"sum_hessian":[1.094E3,4E2,6.94E2,8E0,3.92E2,4.41E2,2.53E2,2.57E2,1.35E2,3E1,4.11E2,2.15E2,3.8E1,1.01E2,1.56E2,4E0,1.31E2,7.7E1,3.34E2,1.55E2,6E1,9E0,2.9E1,9.1E1,1E1,1.24E2,3.2E1,9.3E1,3.8E1,1.7E1,6E1,1.05E2,2.29E2,4.2E1,1.13E2,2.3E1,3.7E1,4E0,5E0,8.7E1,4E0,3E0,7E0,6.7E1,5.7E1,2E1,1.2E1,3E0,9E1,2.8E1,1E1,1.3E1,4E0,7E0,5.3E1,3.4E1,7.1E1,1.76E2,5.3E1,2.7E1,1.5E1,9.4E1,1.9E1,1.9E1,4E0,3.3E1,4E0],"tree_param":{"num_deleted":"0","num_feature":"32","num_nodes":"67","size_leaf_vector":"1"}},{"base_weights":[1.0431946E-2,-2.2235851E0,2.6317778E0,4.008927E-1,-2.8537953E0,1.9083942E0,4.6121054E0,-4.7170315E0,-1.2569854E0,9.0460503E-1,3.293353E0,5.4941926E0,2.8435466E0,-6.043594E0,-3.9602773E0,-2.2249355E0,7.312493E-1,1.4108586E0,-1.7103665E0,3.645525E0,1.1443149E0,4.654279E0,3.8144916E-1,1.2642443E0,4.367882E0,-3.079955E-1,-1.0014129E-1,8.519017E-2,-4.149109E0,-1.9885147E0,-4.1454515E0,1.4897904E0,-1.426626E0,1.2497258E0,3.3841679E-1,1.9240847E-1,-2.4791727E0,4.2217164E0,2.1780553E0,-1.0396228E0,2.904238E0,3.2391065E-1,4.1190825E0,2.8016987E-1,2.0848863E-1,5.7000904E0,1.1574792E0,-2.3354228E-1,-8.246129E-2,7.382269E-2,-1.1005107E-1,-2.3608206E-1,-2.5811886E-2,1.0723312E-1,-6.2903212E-3,-1.2334075E-1,8.745732E-2,8.754242E-2,-1.8942455E-2,8.1571616E-2,-4.3147635E-2,-1.6811995E-1,1.3616154E-2,1.5964207E-1,2.6719153E-1,-1.9681308E-2,1.7395179E-1,7.912623E-2,-1.1103719E-1,-6.092347E-2,2.1314485E-1,2.2934198E-1,1.0693381E-1,-7.087716E-2,1.1620112E-1,3.251905E-1,1.3155724E-1,-5.8572706E-2,1.889638E-1],"categories":[],"categories_nodes":[],"categories_segments":[],"categories_sizes":[],"default_left":[0,0,0,0,0,0,0,0,0,0,0,0,0,0,0,0,0,0,0,0,0,0,0,0,0,0,0,0,0,0,0,0,0,0,0,0,0,0,0,0,0,0,0,0,0,0,0,0,0,0,0,0,0,0,0,0,0,0,0,0,0,0,0,0,0,0,0,0,0,0,0,0,0,0,0,0,0,0,0],"id":4,"left_children":[1,3,5,-1,7,9,11,13,15,17,19,21,23,25,27,29,31,33,35,37,39,41,-1,43,45,-1,-1,-1,47,49,51,53,55,57,-1,59,61,63,65,67,69,-1,71,73,-1,75,77,-1,-1,-1,-1,-1,-1,-1,-1,-1,-1,-1,-1,-1,-1,-1,-1,-1,-1,-1,-1,-1,-1,-1,-1,-1,-1,-1,-1,-1,-1,-1,-1],"loss_changes":[6.312906E3,3.7792595E3,7.017361E2,0E0,1.6274736E3,5.044463E2,1.903003E2,2.3004785E2,5.73207E2,2.8439078E2,1.1162366E2,1.2048682E2,1.0521771E2,2.9963135E1,1.8247656E2,8.256677E1,1.6253543E2,1.4606592E2,5.1677307E1,1.0157092E2,9.142125E1,3.6766235E1,0E0,6.74539E1,9.1771545E1,0E0,0E0,0E0,1.9967725E2,1.3578894E2,4.147592E1,7.750447E1,9.020331E1,1.4348355E2,0E0,1.8113438E1,6.1670486E1,9.030786E1,1.31852E2,3.758218E1,7.801181E1,0E0,3.9286743E1,6.922202E1,0E0,2.2352722E1,5.3275166E1,0E0,0E0,0E0,0E0,0E0,0E0,0E0,0E0,0E0,0E0,0E0,0E0,0E0,0E0,0E0,0E0,0E0,0E0,0E0,0E0,0E0,0E0,0E0,0E0,0E0,0E0,0E0,0E0,0E0,0E0,0E0,0E0],"parents":[2147483647,0,0,1,1,2,2,4,4,5,5,6,6,7,7,8,8,9,9,10,10,11,11,12,12,13,13,14,14,15,15,16,16,17,17,18,18,19,19,20,20,21,21,23,23,24,24,28,28,29,29,30,30,31,31,32,32,33,33,35,35,36,36,37,37,38,38,39,39,40,40,42,42,43,43,45,45,46,46],"right_children":[2,4,6,-1,8,10,12,14,16,18,20,22,24,26,28,30,32,34,36,38,40,42,-1,44,46,-1,-1,-1,48,50,52,54,56,58,-1,60,62,64,66,68,70,-1,72,74,-1,76,78,-1,-1,-1,-1,-1,-1,-1,-1,-1,-1,-1,-1,-1,-1,-1,-1,-1,-1,-1,-1,-1,-1,-1,-1,-1,-1,-1,-1,-1,-1,-1,-1],"split_conditions":[1.01376E0,1E0,2.3635E0,4.008927E-1,4.61E-1,1.8097E0,1E0,1.85E-2,9E0,3E0,3E0,3.445E0,2.37E1,8.8E1,3.7E-2,4E0,1E0,7.7E-1,1.89E1,4.66E1,2.4077E0,1.5511E0,3.8144916E-1,1.091368E0,3E0,-3.079955E-1,-1.0014129E-1,8.519017E-2,2E0,2.8E-2,8.8E-1,3E-3,2.3E-2,1E0,3.3841679E-1,1E1,1.5397E0,8.167E0,1.02044E0,5E0,1.053E-1,3.2391065E-1,2E0,1.18E1,2.0848863E-1,8E0,3.32E0,-2.3354228E-1,-8.246129E-2,7.382269E-2,-1.1005107E-1,-2.3608206E-1,-2.5811886E-2,1.0723312E-1,-6.2903212E-3,-1.2334075E-1,8.745732E-2,8.754242E-2,-1.8942455E-2,8.1571616E-2,-4.3147635E-2,-1.6811995E-1,1.3616154E-2,1.5964207E-1,2.6719153E-1,-1.9681308E-2,1.7395179E-1,7.912623E-2,-1.1103719E-1,-6.092347E-2,2.1314485E-1,2.2934198E-1,1.0693381E-1,-7.087716E-2,1.1620112E-1,3.251905E-1,1.3155724E-1,-5.8572706E-2,1.889638E-1],"split_indices":[6,6,7,0,7,3,11,7,20,10,10,7,13,27,7,9,11,4,12,13,3,3,0,6,10,0,0,0,30,3,4,4,4,18,0,16,3,25,6,16,19,0,24,15,0,26,7,0,0,0,0,0,0,0,0,0,0,0,0,0,0,0,0,0,0,0,0,0,0,0,0,0,0,0,0,0,0,0,0],"split_type":[0,0,0,0,0,0,0,0,0,0,0,0,0,0,0,0,0,0,0,0,0,0,0,0,0,0,0,0,0,0,0,0,0,0,0,0,0,0,0,0,0,0,0,0,0,0,0,0,0,0,0,0,0,0,0,0,0,0,0,0,0,0,0,0,0,0,0,0,0,0,0,0,0,0,0,0,0,0,0],"sum_hessian":[1.076E3,5.81E2,4.95E2,3.3E1,5.48E2,3.64E2,1.31E2,2.52E2,2.96E2,2.12E2,1.52E2,8.6E1,4.5E1,8.9E1,1.63E2,1.99E2,9.7E1,1.78E2,3.4E1,1.3E2,2.2E1,6.4E1,2.2E1,2.3E1,2.2E1,8.6E1,3E0,5E0,1.58E2,1.79E2,2E1,7.2E1,2.5E1,1.74E2,4E0,1E1,2.4E1,9.2E1,3.8E1,1E1,1.2E1,1.2E1,5.2E1,1.8E1,5E0,1.5E1,7E0,1.3E2,2.8E1,1E1,1.69E2,1.7E1,3E0,5.1E1,2.1E1,1.9E1,6E0,1.33E2,4.1E1,4E0,6E0,1.8E1,6E0,5E1,4.2E1,1.3E1,2.5E1,3E0,7E0,3E0,9E0,4.1E1,1.1E1,1E1,8E0,1.1E1,4E0,4E0,3E0],"tree_param":{"num_deleted":"0","num_feature":"32","num_nodes":"79","size_leaf_vector":"1"}},{"base_weights":[2.0555109E-2,-2.2809336E0,2.2888918E0,-3.2577667E0,5.349259E-1,1.5210768E0,4.0991626E0,-3.7966723E0,-1.6511796E0,5.8457623E0,-7.627989E-1,6.5618026E-1,2.706988E0,1.1041462E0,4.6261E0,-4.311664E0,-1.717E0,2.3604298E0,-1.9650115E0,-1.0733771E-1,3.6336485E-1,-2.2760386E0,4.3679927E-2,1.073294E0,-1.5260369E0,2.3711212E0,5.023467E0,9.649177E-2,2.6584983E-1,5.5945883E0,1.9745117E0,-4.6878233E0,-2.2854621E0,1.51867E0,-3.411335E0,3.9138174E-1,-1.2427101E-1,-2.119561E0,1.0790783E-1,-2.83172E-1,-2.9308884E0,-4.5591462E-1,3.3865955E0,1.5115256E0,-2.7289078E-1,2.2533372E-1,-2.375708E0,1.760634E0,4.0009027E0,5.8923664E0,6.191479E-2,2.103184E0,-1.4545401E0,4.9662967E0,3.6655378E-1,7.6484936E-1,2.7030239E-1,-2.893133E-1,-2.0354144E-1,-2.0012365E-1,1.7733005E-3,1.9144826E-1,-2.640139E-1,-1.9743954E-1,-8.91709E-2,-1.704271E-1,-8.73786E-2,4.3270964E-2,-1.2547807E-1,-1.6902992E-1,-3.1101226E-4,-2.811118E-3,-1.6983087E-1,6.571868E-2,2.2745073E-1,1.9658905E-2,9.455114E-2,-9.093224E-2,9.005548E-2,-7.509765E-2,7.46316E-2,-1.4254989E-1,4.782505E-3,6.2096942E-2,1.674376E-1,1.016016E-1,2.400348E-1,3.325356E-1,1.4469324E-1,1.9208793E-1,4.0462896E-2,-1.13848425E-1,1.5836945E-2,3.4344012E-1,2.2581568E-1,-3.40538E-2,1.232992E-1],"categories":[],"categories_nodes":[],"categories_segments":[],"categories_sizes":[],"default_left":[0,0,0,0,0,0,0,0,0,0,0,0,0,0,0,0,0,0,0,0,0,0,0,0,0,0,0,0,0,0,0,0,0,0,0,0,0,0,0,0,0,0,0,0,0,0,0,0,0,0,0,0,0,0,0,0,0,0,0,0,0,0,0,0,0,0,0,0,0,0,0,0,0,0,0,0,0,0,0,0,0,0,0,0,0,0,0,0,0,0,0,0,0,0,0,0,0],"id":5,"left_children":[1,3,5,7,9,11,13,15,17,19,21,23,25,27,29,31,33,35,37,-1,-1,39,41,43,45,47,49,51,-1,53,55,57,59,61,63,-1,-1,65,-1,67,69,71,73,75,77,79,81,83,85,87,-1,89,91,93,-1,95,-1,-1,-1,-1,-1,-1,-1,-1,-1,-1,-1,-1,-1,-1,-1,-1,-1,-1,-1,-1,-1,-1,-1,-1,-1,-1,-1,-1,-1,-1,-1,-1,-1,-1,-1,-1,-1,-1,-1,-1,-1],"loss_changes":[5.7634893E3,1.5090854E3,7.665786E2,3.4611084E2,9.831237E2,4.0029443E2,2.5529272E2,3.1818555E2,1.3557129E2,3.3372693E2,1.4044495E2,2.0917096E2,1.164635E2,1.0985949E2,3.4847778E2,1.7449463E2,3.4508383E2,2.3140103E2,6.638602E1,0E0,0E0,5.1371185E1,1.2847177E2,1.1368109E2,5.5594627E1,1.3822015E2,5.848221E1,7.153293E1,0E0,7.487598E1,1.5775418E2,1.14703125E2,1.5954425E2,3.6578467E2,2.8829895E1,0E0,0E0,3.9115112E1,0E0,3.0301151E1,3.9436523E1,7.8559235E1,1.8108803E1,6.0795868E1,1.5715851E2,3.0698702E1,2.963797E1,8.480597E1,5.1657654E1,1.7136108E1,0E0,1.9386898E1,1.9658958E1,3.5753784E1,0E0,7.5470924E1,0E0,0E0,0E0,0E0,0E0,0E0,0E0,0E0,0E0,0E0,0E0,0E0,0E0,0E0,0E0,0E0,0E0,0E0,0E0,0E0,0E0,0E0,0E0,0E0,0E0,0E0,0E0,0E0,0E0,0E0,0E0,0E0,0E0,0E0,0E0,0E0,0E0,0E0,0E0,0E0,0E0],"parents":[2147483647,0,0,1,1,2,2,3,3,4,4,5,5,6,6,7,7,8,8,9,9,10,10,11,11,12,12,13,13,14,14,15,15,16,16,17,17,18,18,21,21,22,22,23,23,24,24,25,25,26,26,27,27,29,29,30,30,31,31,32,32,33,33,34,34,37,37,39,39,40,40,41,41,42,42,43,43,44,44,45,45,46,46,47,47,48,48,49,49,51,51,52,52,53,53,55,55],"right_children":[2,4,6,8,10,12,14,16,18,20,22,24,26,28,30,32,34,36,38,-1,-1,40,42,44,46,48,50,52,-1,54,56,58,60,62,64,-1,-1,66,-1,68,70,72,74,76,78,80,82,84,86,88,-1,90,92,94,-1,96,-1,-1,-1,-1,-1,-1,-1,-1,-1,-1,-1,-1,-1,-1,-1,-1,-1,-1,-1,-1,-1,-1,-1,-1,-1,-1,-1,-1,-1,-1,-1,-1,-1,-1,-1,-1,-1,-1,-1,-1,-1],"split_conditions":[1.107E0,9.625E0,2.222E0,6.625E-1,1.25E-2,1.01756E0,1.58E1,9.825E-1,1.00028E0,9E0,7.12E-1,3E0,1.375E1,2.6316E1,3E0,2E0,3.7E-2,6.2E0,1.65E1,-1.0733771E-1,3.6336485E-1,1.0714E1,1.023474E0,1E0,1.89E1,1.3375E1,1E0,1E0,2.6584983E-1,3.1215E0,3.445E0,3E-2,5E0,1.027193E0,1E0,3.9138174E-1,-1.2427101E-1,3E1,1.0790783E-1,2.27E1,1.4E1,4E0,2E0,7.79E-1,1.5045E0,1.571E0,1.015476E0,6.1E1,1.4255E0,2.293E0,6.191479E-2,1.011429E0,7.3E1,1.010933E0,3.6655378E-1,1.020364E0,2.7030239E-1,-2.893133E-1,-2.0354144E-1,-2.0012365E-1,1.7733005E-3,1.9144826E-1,-2.640139E-1,-1.9743954E-1,-8.91709E-2,-1.704271E-1,-8.73786E-2,4.3270964E-2,-1.2547807E-1,-1.6902992E-1,-3.1101226E-4,-2.811118E-3,-1.6983087E-1,6.571868E-2,2.2745073E-1,1.9658905E-2,9.455114E-2,-9.093224E-2,9.005548E-2,-7.509765E-2,7.46316E-2,-1.4254989E-1,4.782505E-3,6.2096942E-2,1.674376E-1,1.016016E-1,2.400348E-1,3.325356E-1,1.4469324E-1,1.9208793E-1,4.0462896E-2,-1.13848425E-1,1.5836945E-2,3.4344012E-1,2.2581568E-1,-3.40538E-2,1.232992E-1],"split_indices":[7,15,7,7,7,1,12,3,1,27,7,10,25,7,10,30,7,15,25,0,0,15,1,18,12,15,10,29,0,7,7,2,18,1,17,0,0,13,0,12,30,9,10,2,7,7,1,27,7,2,0,1,27,1,0,1,0,0,0,0,0,0,0,0,0,0,0,0,0,0,0,0,0,0,0,0,0,0,0,0,0,0,0,0,0,0,0,0,0,0,0,0,0,0,0,0,0],"split_type":[0,0,0,0,0,0,0,0,0,0,0,0,0,0,0,0,0,0,0,0,0,0,0,0,0,0,0,0,0,0,0,0,0,0,0,0,0,0,0,0,0,0,0,0,0,0,0,0,0,0,0,0,0,0,0,0,0,0,0,0,0,0,0,0,0,0,0,0,0,0,0,0,0,0,0,0,0,0,0,0,0,0,0,0,0,0,0,0,0,0,0,0,0,0,0,0,0],"sum_hessian":[1.102E3,5.47E2,5.55E2,4.06E2,1.41E2,3.91E2,1.64E2,3.03E2,1.03E2,2.7E1,1.14E2,2.27E2,1.64E2,2.5E1,1.39E2,2.42E2,6.1E1,7E0,9.6E1,4E0,2.3E1,3.9E1,7.5E1,1.91E2,3.6E1,1.45E2,1.9E1,2.1E1,4E0,1.01E2,3.8E1,2.03E2,3.9E1,2.1E1,4E1,3E0,4E0,9.3E1,3E0,1E1,2.9E1,6.6E1,9E0,1.44E2,4.7E1,1.2E1,2.4E1,1.07E2,3.8E1,1.5E1,4E0,9E0,1.2E1,7.7E1,2.4E1,2.9E1,9E0,7E1,1.33E2,2.2E1,1.7E1,1.6E1,5E0,2.9E1,1.1E1,1.9E1,7.4E1,7E0,3E0,2.5E1,4E0,5.9E1,7E0,4E0,5E0,3.7E1,1.07E2,2.7E1,2E1,5E0,7E0,2E1,4E0,8.2E1,2.5E1,1.2E1,2.6E1,1.1E1,4E0,3E0,6E0,8E0,4E0,1.2E1,6.5E1,1.6E1,1.3E1],"tree_param":{"num_deleted":"0","num_feature":"32","num_nodes":"97","size_leaf_vector":"1"}},{"base_weights":[1.6371728E-3,-2.4895906E0,1.9201664E0,3.0832686E0,-2.9184616E0,6.321432E-1,3.0814369E0,3.808609E-1,-2.4935002E0,-4.21942E0,-1.1471764E0,5.4651694E0,1.151521E-2,2.692553E0,6.1711316E0,-2.5525093E-1,1.593455E0,-5.311114E0,-3.4364407E0,-1.8153181E0,2.861767E-1,6.7488313E0,-1.5365516E-1,-1.9302619E0,8.636756E-1,1.9350624E0,3.8869467E0,7.396664E-2,6.564759E0,-1.886036E-1,3.280309E-1,-5.4592457E0,-6.579431E-2,-3.8977237E0,-2.035444E0,-2.2574546E0,1.762445E-1,-4.923171E-1,2.6544793E0,3.7003386E-1,4.123131E-2,-3.811853E0,-1.0398974E0,-1.6006097E-1,1.8666713E0,2.4372773E0,-4.1676423E-1,2.808954E0,4.5900345E0,3.569412E-1,1.4436696E-1,-2.828719E-1,-1.7754488E-1,-2.2145681E-1,-1.5539856E-1,-1.4867507E-1,2.4690226E-1,5.319759E-2,-1.2540561E-1,-9.380474E-2,7.663605E-2,1.4596751E-1,-5.3852547E-2,1.2116999E-2,2.6882952E-1,-2.2476678E-1,-1.4175755E-1,-8.590352E-2,1.6774321E-2,5.3352237E-2,-4.620719E-2,-1.7427487E-2,1.4542225E-1,1.3469794E-1,-1.16361E-1,1.0683396E-1,-5.4410018E-2,5.4644562E-2,1.8886182E-1,1.754005E-1,2.9914787E-1],"categories":[],"categories_nodes":[],"categories_segments":[],"categories_sizes":[],"default_left":[0,0,0,0,0,0,0,0,0,0,0,0,0,0,0,0,0,0,0,0,0,0,0,0,0,0,0,0,0,0,0,0,0,0,0,0,0,0,0,0,0,0,0,0,0,0,0,0,0,0,0,0,0,0,0,0,0,0,0,0,0,0,0,0,0,0,0,0,0,0,0,0,0,0,0,0,0,0,0,0,0],"id":6,"left_children":[1,3,5,7,9,11,13,-1,15,17,19,21,23,25,27,-1,29,31,33,35,37,39,-1,41,43,45,47,-1,49,-1,-1,51,-1,53,55,57,59,61,63,-1,-1,65,67,69,71,73,75,77,79,-1,-1,-1,-1,-1,-1,-1,-1,-1,-1,-1,-1,-1,-1,-1,-1,-1,-1,-1,-1,-1,-1,-1,-1,-1,-1,-1,-1,-1,-1,-1,-1],"loss_changes":[5.152295E3,1.129925E3,9.0895996E2,8.786763E2,9.99864E2,8.697954E2,3.6787427E2,0E0,1.7890515E2,1.9629688E2,1.7864854E2,3.8242834E2,4.2858115E2,2.5123462E2,5.4927124E1,0E0,2.1130725E2,5.377368E1,8.835852E1,1.12226746E2,1.1192939E2,1.0588562E2,0E0,1.2838489E2,1.8512343E2,2.1007446E2,7.047839E1,0E0,4.6942383E1,0E0,0E0,1.7354736E1,0E0,3.2819336E1,2.69803E2,8.925226E1,6.969034E1,9.491049E1,9.718868E1,0E0,0E0,3.9440002E0,5.1877525E1,8.537103E1,2.1101978E2,1.8482117E2,5.7188313E1,7.230698E1,7.697815E1,0E0,0E0,0E0,0E0,0E0,0E0,0E0,0E0,0E0,0E0,0E0,0E0,0E0,0E0,0E0,0E0,0E0,0E0,0E0,0E0,0E0,0E0,0E0,0E0,0E0,0E0,0E0,0E0,0E0,0E0,0E0,0E0],"parents":[2147483647,0,0,1,1,2,2,3,3,4,4,5,5,6,6,8,8,9,9,10,10,11,11,12,12,13,13,14,14,16,16,17,17,18,18,19,19,20,20,21,21,23,23,24,24,25,25,26,26,28,28,31,31,33,33,34,34,35,35,36,36,37,37,38,38,41,41,42,42,43,43,44,44,45,45,46,46,47,47,48,48],"right_children":[2,4,6,8,10,12,14,-1,16,18,20,22,24,26,28,-1,30,32,34,36,38,40,-1,42,44,46,48,-1,50,-1,-1,52,-1,54,56,58,60,62,64,-1,-1,66,68,70,72,74,76,78,80,-1,-1,-1,-1,-1,-1,-1,-1,-1,-1,-1,-1,-1,-1,-1,-1,-1,-1,-1,-1,-1,-1,-1,-1,-1,-1,-1,-1,-1,-1,-1,-1],"split_conditions":[8E0,1E0,1.491E0,1E0,6.625E-1,1E0,3.5465E0,3.808609E-1,1.47E2,3E0,1.3515E0,5.1E-2,9E0,2.2272E0,1E0,-2.5525093E-1,1.59E-1,1.4E1,7.7E1,1.15E1,1.1429E1,3E0,-1.5365516E-1,4.56E-1,1.2E1,3E0,1.6E1,7.396664E-2,3E0,-1.886036E-1,3.280309E-1,7.667E0,-6.579431E-2,5.56E-2,3.21E-1,1.00028E0,2.85E1,5.2E0,2E0,3.7003386E-1,4.123131E-2,5E0,1.107E0,1.1E1,1.049E0,1E0,1.012737E0,1.025003E0,3.8E1,3.569412E-1,1.4436696E-1,-2.828719E-1,-1.7754488E-1,-2.2145681E-1,-1.5539856E-1,-1.4867507E-1,2.4690226E-1,5.319759E-2,-1.2540561E-1,-9.380474E-2,7.663605E-2,1.4596751E-1,-5.3852547E-2,1.2116999E-2,2.6882952E-1,-2.2476678E-1,-1.4175755E-1,-8.590352E-2,1.6774321E-2,5.3352237E-2,-4.620719E-2,-1.7427487E-2,1.4542225E-1,1.3469794E-1,-1.16361E-1,1.0683396E-1,-5.4410018E-2,5.4644562E-2,1.8886182E-1,1.754005E-1,2.9914787E-1],"split_indices":[0,8,7,10,7,8,7,0,22,0,7,7,15,3,9,0,7,26,27,14,15,10,0,7,0,10,0,0,8,0,0,15,0,19,4,1,13,14,29,0,0,20,7,22,7,17,1,1,27,0,0,0,0,0,0,0,0,0,0,0,0,0,0,0,0,0,0,0,0,0,0,0,0,0,0,0,0,0,0,0,0],"split_type":[0,0,0,0,0,0,0,0,0,0,0,0,0,0,0,0,0,0,0,0,0,0,0,0,0,0,0,0,0,0,0,0,0,0,0,0,0,0,0,0,0,0,0,0,0,0,0,0,0,0,0,0,0,0,0,0,0,0,0,0,0,0,0,0,0,0,0,0,0,0,0,0,0,0,0,0,0,0,0,0,0],"sum_hessian":[1.076E3,4.68E2,6.08E2,3.3E1,4.35E2,2.89E2,3.19E2,1.8E1,1.5E1,2.5E2,1.85E2,3.2E1,2.57E2,2.85E2,3.4E1,9E0,6E0,1.02E2,1.48E2,1.26E2,5.9E1,2.8E1,4E0,7.8E1,1.79E2,1.76E2,1.09E2,3E0,3.1E1,3E0,3E0,9.8E1,4E0,1.1E2,3.8E1,1.03E2,2.3E1,4.5E1,1.4E1,2.5E1,3E0,2.4E1,5.4E1,8.9E1,9E1,1.45E2,3.1E1,4.5E1,6.4E1,2.6E1,5E0,8.7E1,1.1E1,6.3E1,4.7E1,3.4E1,4E0,7E0,9.6E1,9E0,1.4E1,6E0,3.9E1,8E0,6E0,1.2E1,1.2E1,3.6E1,1.8E1,3.4E1,5.5E1,2.9E1,6.1E1,1.38E2,7E0,6E0,2.5E1,1.7E1,2.8E1,3.8E1,2.6E1],"tree_param":{"num_deleted":"0","num_feature":"32","num_nodes":"81","size_leaf_vector":"1"}},{"base_weights":[9.045539E-2,-1.8065978E0,2.426309E0,3.4605944E-1,-2.3634493E0,1.7251716E0,4.189591E0,-3.7237175E0,-6.065055E-1,1.1871719E0,3.0663302E0,5.4460835E0,2.9091465E0,-5.144204E0,-3.0710626E0,-1.1419333E0,1.6259246E0,1.6567283E0,-1.2468277E0,2.2988605E0,4.6756554E0,1.6892543E0,6.0646877E0,3.2457507E0,-5.839698E-1,-1.4718069E0,-5.3677106E0,-4.9109306E0,-2.6067383E0,2.2160606E0,-1.3126596E0,8.367389E-1,3.4827511E0,9.74935E-1,2.6882079E0,-1.9060583E0,1.7107561E0,2.7591295E0,-6.9263935E-1,5.560798E0,2.2607756E0,-5.898375E-1,2.271066E-1,4.456985E0,3.366823E-1,3.5097017E0,5.463648E-3,-6.7784764E-2,1.6687406E-2,-1.9987743E-1,7.109433E-2,-2.717148E-1,-1.2721239E-1,-1.1928703E-1,-2.627971E-1,8.764478E-2,-1.3718317E-1,3.7471005E-1,-5.582997E-2,-1.2028849E-1,-3.0503575E-2,1.4878413E-1,1.4579455E-2,7.612427E-2,2.6127598E-1,3.9627552E-2,2.6515356E-1,1.5962468E-1,-1.261844E-3,-1.2164793E-1,-1.9910088E-2,2.2875874E-1,-4.614651E-2,1.07682146E-1,2.500803E-1,-1.2192076E-1,4.388068E-2,3.198582E-1,1.1321479E-1,1.6442927E-2,2.5382182E-1,9.009176E-2,-1.4170253E-1,1.232806E-1,2.7895498E-1,5.80368E-2,1.9546506E-1],"categories":[],"categories_nodes":[],"categories_segments":[],"categories_sizes":[],"default_left":[0,0,0,0,0,0,0,0,0,0,0,0,0,0,0,0,0,0,0,0,0,0,0,0,0,0,0,0,0,0,0,0,0,0,0,0,0,0,0,0,0,0,0,0,0,0,0,0,0,0,0,0,0,0,0,0,0,0,0,0,0,0,0,0,0,0,0,0,0,0,0,0,0,0,0,0,0,0,0,0,0,0,0,0,0,0,0],"id":7,"left_children":[1,3,5,-1,7,9,11,13,15,17,19,21,23,25,27,29,31,33,35,37,39,41,43,45,47,49,51,53,55,57,59,61,63,65,67,69,71,73,75,77,79,81,-1,83,-1,85,-1,-1,-1,-1,-1,-1,-1,-1,-1,-1,-1,-1,-1,-1,-1,-1,-1,-1,-1,-1,-1,-1,-1,-1,-1,-1,-1,-1,-1,-1,-1,-1,-1,-1,-1,-1,-1,-1,-1,-1,-1],"loss_changes":[4.78569E3,2.9129663E3,5.9114307E2,0E0,1.3384836E3,2.4745667E2,2.0457153E2,2.7716162E2,2.9590173E2,2.877906E2,1.1152704E2,1.477865E2,8.420123E1,7.253833E1,1.742893E2,1.1699527E2,6.7424126E1,1.4506287E2,8.319972E1,9.691681E1,5.3691162E1,7.420078E1,3.2366455E1,5.2600586E1,5.4100447E0,5.684511E1,3.4702148E0,2.4923096E1,1.1046814E2,1.8427048E2,1.4445346E2,3.9943882E1,3.987227E1,9.683802E1,1.1365381E2,2.6043854E1,6.457441E1,7.069568E1,2.9553078E1,4.6170715E1,5.2726807E1,4.2678455E1,0E0,3.093512E1,0E0,5.0842407E1,0E0,0E0,0E0,0E0,0E0,0E0,0E0,0E0,0E0,0E0,0E0,0E0,0E0,0E0,0E0,0E0,0E0,0E0,0E0,0E0,0E0,0E0,0E0,0E0,0E0,0E0,0E0,0E0,0E0,0E0,0E0,0E0,0E0,0E0,0E0,0E0,0E0,0E0,0E0,0E0,0E0],"parents":[2147483647,0,0,1,1,2,2,4,4,5,5,6,6,7,7,8,8,9,9,10,10,11,11,12,12,13,13,14,14,15,15,16,16,17,17,18,18,19,19,20,20,21,21,22,22,23,23,24,24,25,25,26,26,27,27,28,28,29,29,30,30,31,31,32,32,33,33,34,34,35,35,36,36,37,37,38,38,39,39,40,40,41,41,43,43,45,45],"right_children":[2,4,6,-1,8,10,12,14,16,18,20,22,24,26,28,30,32,34,36,38,40,42,44,46,48,50,52,54,56,58,60,62,64,66,68,70,72,74,76,78,80,82,-1,84,-1,86,-1,-1,-1,-1,-1,-1,-1,-1,-1,-1,-1,-1,-1,-1,-1,-1,-1,-1,-1,-1,-1,-1,-1,-1,-1,-1,-1,-1,-1,-1,-1,-1,-1,-1,-1,-1,-1,-1,-1,-1,-1],"split_conditions":[1.014609E0,1E0,2.393E0,3.4605944E-1,6.625E-1,1.683E0,1E0,1.37E-1,1.2E1,3E0,1.12E1,1E0,9E0,1.68E1,1.85E-2,1.00028E0,1.018688E0,1.02044E0,6.1E1,8E0,1.739E-1,1.019837E0,1.031741E0,3.684E-1,2.782E0,1E0,4.95E2,1.6E1,3.7E-2,6.2E0,4.1E1,1.18E1,1.4E1,8.63E-1,6.4E1,1.1E1,1.014001E0,1.3E1,1.024259E0,1.2E1,1.2E1,1.011912E0,2.271066E-1,7.14E-2,3.366823E-1,1.44E1,5.463648E-3,-6.7784764E-2,1.6687406E-2,-1.9987743E-1,7.109433E-2,-2.717148E-1,-1.2721239E-1,-1.1928703E-1,-2.627971E-1,8.764478E-2,-1.3718317E-1,3.7471005E-1,-5.582997E-2,-1.2028849E-1,-3.0503575E-2,1.4878413E-1,1.4579455E-2,7.612427E-2,2.6127598E-1,3.9627552E-2,2.6515356E-1,1.5962468E-1,-1.261844E-3,-1.2164793E-1,-1.9910088E-2,2.2875874E-1,-4.614651E-2,1.07682146E-1,2.500803E-1,-1.2192076E-1,4.388068E-2,3.198582E-1,1.1321479E-1,1.6442927E-2,2.5382182E-1,9.009176E-2,-1.4170253E-1,1.232806E-1,2.7895498E-1,5.80368E-2,1.9546506E-1],"split_indices":[6,6,7,0,7,2,10,2,20,10,25,20,29,12,7,1,1,6,27,26,19,1,6,19,7,11,22,27,7,15,27,15,20,4,22,20,1,20,1,20,20,1,0,19,0,12,0,0,0,0,0,0,0,0,0,0,0,0,0,0,0,0,0,0,0,0,0,0,0,0,0,0,0,0,0,0,0,0,0,0,0,0,0,0,0,0,0],"split_type":[0,0,0,0,0,0,0,0,0,0,0,0,0,0,0,0,0,0,0,0,0,0,0,0,0,0,0,0,0,0,0,0,0,0,0,0,0,0,0,0,0,0,0,0,0,0,0,0,0,0,0,0,0,0,0,0,0,0,0,0,0,0,0,0,0,0,0,0,0,0,0,0,0,0,0,0,0,0,0,0,0,0,0,0,0,0,0],"sum_hessian":[1.078E3,5.95E2,4.83E2,3.5E1,5.6E2,3.47E2,1.36E2,3.15E2,2.45E2,2.49E2,9.8E1,6.7E1,6.9E1,9.7E1,2.18E2,1.98E2,4.7E1,2.09E2,4E1,6.8E1,3E1,1E1,5.7E1,6.3E1,6E0,6E0,9.1E1,4.2E1,1.76E2,9E0,1.89E2,3.4E1,1.3E1,1.27E2,8.2E1,3.3E1,7E0,5.9E1,9E0,2.1E1,9E0,6E0,4E0,1.9E1,3.8E1,5.8E1,5E0,3E0,3E0,3E0,3E0,8.8E1,3E0,6E0,3.6E1,5E0,1.71E2,3E0,6E0,7.3E1,1.16E2,6E0,2.8E1,7E0,6E0,1.23E2,4E0,6.9E1,1.3E1,2.4E1,9E0,3E0,4E0,4.8E1,1.1E1,4E0,5E0,1.6E1,5E0,6E0,3E0,3E0,3E0,8E0,1.1E1,9E0,4.9E1],"tree_param":{"num_deleted":"0","num_feature":"32","num_nodes":"87","size_leaf_vector":"1"}},{"base_weights":[-4.377158E-2,-1.9029348E0,2.254291E0,3.3202216E-1,-2.479266E0,1.6112949E0,3.987878E0,-3.263581E0,-8.027132E-2,7.842585E-1,2.757141E0,4.837171E0,2.2179604E0,-4.4004536E0,-2.3746767E0,1.4031212E0,-1.0682441E0,1.2196472E0,-1.0639803E0,3.1844866E0,1.3890369E0,3.304991E-1,4.1729436E0,1.1409171E0,4.224183E0,-2.6652533E-1,-3.6813455E0,1.460578E-1,-2.4543743E0,1.8773456E0,-2.1846416E0,-2.046133E0,3.592614E-1,4.4005203E-1,1.8436211E0,1.1290026E-1,-1.3943577E0,2.8728628E0,4.5586E0,8.4702605E-1,2.3442505E-1,3.0681076E0,4.859161E0,5.2395743E-1,1.7607147E-1,2.877223E-1,2.564625E0,-2.0336545E-1,-5.2147467E-2,-1.858965E-1,-1.034055E-1,1.1486285E-1,-1.1806538E-1,-4.2447306E-2,-1.4870884E-1,-1.4199367E-1,-9.0971235E-3,-5.697179E-2,5.9536554E-2,7.5562134E-2,-9.028132E-2,1.05483785E-1,-1.1828913E-1,2.2254666E-2,-1.000753E-1,1.5202086E-1,3.4580242E-2,3.1112835E-1,4.0857323E-2,8.1278365E-3,1.6830592E-1,2.0410453E-1,1.1390006E-1,2.5711238E-1,9.5286034E-2,-3.65036E-2,8.6884126E-2,1.8897979E-1,4.183647E-2],"categories":[],"categories_nodes":[],"categories_segments":[],"categories_sizes":[],"default_left":[0,0,0,0,0,0,0,0,0,0,0,0,0,0,0,0,0,0,0,0,0,0,0,0,0,0,0,0,0,0,0,0,0,0,0,0,0,0,0,0,0,0,0,0,0,0,0,0,0,0,0,0,0,0,0,0,0,0,0,0,0,0,0,0,0,0,0,0,0,0,0,0,0,0,0,0,0,0,0],"id":8,"left_children":[1,3,5,-1,7,9,11,13,15,17,19,21,23,25,27,29,31,33,35,37,39,-1,41,43,45,-1,47,-1,49,51,53,55,57,59,61,-1,63,65,67,69,-1,71,73,75,-1,-1,77,-1,-1,-1,-1,-1,-1,-1,-1,-1,-1,-1,-1,-1,-1,-1,-1,-1,-1,-1,-1,-1,-1,-1,-1,-1,-1,-1,-1,-1,-1,-1,-1],"loss_changes":[4.614288E3,2.955981E3,5.319695E2,0E0,1.0534158E3,3.333081E2,1.8468457E2,4.1601123E2,2.0521051E2,1.67871E2,8.210535E1,7.486365E1,9.025525E1,1.034375E2,1.0804321E2,9.937998E1,1.1799421E2,8.091182E1,4.7048813E1,3.4862915E1,6.219748E1,0E0,3.5130005E1,4.2215313E1,2.3335419E1,0E0,1.0471863E2,0E0,1.0749463E2,9.441745E1,4.857136E0,7.34675E1,4.4971004E1,1.855505E2,1.0914459E2,0E0,4.2213173E1,3.2252197E1,1.1320273E2,5.6352776E1,0E0,1.3133301E1,2.2807434E1,3.93198E1,0E0,0E0,1.5731579E1,0E0,0E0,0E0,0E0,0E0,0E0,0E0,0E0,0E0,0E0,0E0,0E0,0E0,0E0,0E0,0E0,0E0,0E0,0E0,0E0,0E0,0E0,0E0,0E0,0E0,0E0,0E0,0E0,0E0,0E0,0E0,0E0],"parents":[2147483647,0,0,1,1,2,2,4,4,5,5,6,6,7,7,8,8,9,9,10,10,11,11,12,12,13,13,14,14,15,15,16,16,17,17,18,18,19,19,20,20,22,22,23,23,24,24,26,26,28,28,29,29,30,30,31,31,32,32,33,33,34,34,36,36,37,37,38,38,39,39,41,41,42,42,43,43,46,46],"right_children":[2,4,6,-1,8,10,12,14,16,18,20,22,24,26,28,30,32,34,36,38,40,-1,42,44,46,-1,48,-1,50,52,54,56,58,60,62,-1,64,66,68,70,-1,72,74,76,-1,-1,78,-1,-1,-1,-1,-1,-1,-1,-1,-1,-1,-1,-1,-1,-1,-1,-1,-1,-1,-1,-1,-1,-1,-1,-1,-1,-1,-1,-1,-1,-1,-1,-1],"split_conditions":[1.014151E0,1E0,2.393E0,3.3202216E-1,8E0,1.018097E0,1E0,1.003418E0,1.3E1,3E0,1E0,1E0,1.051582E0,1.0001E0,1.003514E0,1E0,1.010186E0,2.4E1,2E0,1.3667E1,1.025382E0,3.304991E-1,6E0,1.3E1,3.4E1,-2.6652533E-1,1.075E1,1.460578E-1,5E0,5E0,8.845E-1,1.474E0,2E0,2.12E1,1.11E2,1.1290026E-1,1.89E1,1.3E1,2.293E0,1.34E2,2.3442505E-1,1E0,5E0,3.2E-2,1.7607147E-1,2.877223E-1,1.014224E0,-2.0336545E-1,-5.2147467E-2,-1.858965E-1,-1.034055E-1,1.1486285E-1,-1.1806538E-1,-4.2447306E-2,-1.4870884E-1,-1.4199367E-1,-9.0971235E-3,-5.697179E-2,5.9536554E-2,7.5562134E-2,-9.028132E-2,1.05483785E-1,-1.1828913E-1,2.2254666E-2,-1.000753E-1,1.5202086E-1,3.4580242E-2,3.1112835E-1,4.0857323E-2,8.1278365E-3,1.6830592E-1,2.0410453E-1,1.1390006E-1,2.5711238E-1,9.5286034E-2,-3.65036E-2,8.6884126E-2,1.8897979E-1,4.183647E-2],"split_indices":[6,6,7,0,20,1,11,6,22,10,23,8,6,6,6,11,6,12,9,25,6,0,22,20,22,0,25,0,14,10,7,2,29,12,16,0,12,25,2,22,0,29,29,4,0,0,1,0,0,0,0,0,0,0,0,0,0,0,0,0,0,0,0,0,0,0,0,0,0,0,0,0,0,0,0,0,0,0,0],"split_type":[0,0,0,0,0,0,0,0,0,0,0,0,0,0,0,0,0,0,0,0,0,0,0,0,0,0,0,0,0,0,0,0,0,0,0,0,0,0,0,0,0,0,0,0,0,0,0,0,0,0,0,0,0,0,0,0,0,0,0,0,0,0,0,0,0,0,0,0,0,0,0,0,0,0,0,0,0,0,0],"sum_hessian":[1.078E3,5.96E2,4.82E2,3.7E1,5.59E2,3.53E2,1.29E2,4.21E2,1.38E2,2.06E2,1.47E2,8.6E1,4.3E1,1.83E2,2.38E2,5.5E1,8.3E1,1.67E2,3.9E1,1.11E2,3.6E1,2.1E1,6.5E1,2.9E1,1.4E1,7.7E1,1.06E2,3E0,2.35E2,4.9E1,6E0,4.9E1,3.4E1,7.5E1,9.2E1,3E0,3.6E1,9.3E1,1.8E1,3.2E1,4E0,2.7E1,3.8E1,2.4E1,5E0,6E0,8E0,9.2E1,1.4E1,5.3E1,1.82E2,4.5E1,4E0,3E0,3E0,3.4E1,1.5E1,1.2E1,2.2E1,5.1E1,2.4E1,8.7E1,5E0,9E0,2.7E1,8.6E1,7E0,1.2E1,6E0,2.6E1,6E0,1E1,1.7E1,3.4E1,4E0,1.2E1,1.2E1,4E0,4E0],"tree_param":{"num_deleted":"0","num_feature":"32","num_nodes":"79","size_leaf_vector":"1"}},{"base_weights":[-6.853978E-2,-2.1285605E0,2.026658E0,3.1071502E-1,-2.3469825E0,5.15898E0,1.6449054E0,-2.974587E0,6.00327E-1,5.8288326E0,-1.4866285E-1,-7.591435E-1,2.267118E0,-3.7868977E0,-2.061085E0,1.3821094E0,-2.1458845E0,3.3194694E-1,3.5405297E0,-2.8448887E0,2.0287482E-1,1.4702033E0,3.0819316E0,-4.7676663E0,-3.265147E0,1.033055E-1,-2.15304E0,3.6421636E-1,3.445132E0,5.8356453E-2,-2.762894E0,1.3347328E0,5.107846E0,-3.722221E0,-1.9034257E0,-6.868001E-1,1.4983675E0,4.6796143E-1,2.278928E0,8.462331E-1,3.2742212E0,1.3657701E-2,-2.4878576E-1,-1.7937672E-1,-8.546525E-2,-1.517164E-1,-8.0991976E-2,-1.8764546E-2,1.3686319E-1,-7.749294E-2,2.598116E-1,-1.4825906E-1,-6.567967E-2,1.5231173E-1,-1.5070763E-2,1.2166121E-1,3.0198097E-1,-2.0162252E-1,-9.30489E-2,-1.2303871E-1,-3.6817265E-3,4.126331E-2,-7.5069994E-2,-1.4629175E-1,1.07315265E-1,-3.241271E-2,6.734139E-2,-1.0337653E-1,1.2127986E-1,2.3551512E-1,-2.0390302E-2,1.07945204E-1,1.8476693E-1],"categories":[],"categories_nodes":[],"categories_segments":[],"categories_sizes":[],"default_left":[0,0,0,0,0,0,0,0,0,0,0,0,0,0,0,0,0,0,0,0,0,0,0,0,0,0,0,0,0,0,0,0,0,0,0,0,0,0,0,0,0,0,0,0,0,0,0,0,0,0,0,0,0,0,0,0,0,0,0,0,0,0,0,0,0,0,0,0,0,0,0,0,0],"id":9,"left_children":[1,3,5,-1,7,9,11,13,15,17,-1,19,21,23,25,27,29,-1,31,33,35,37,39,41,43,-1,45,47,49,-1,51,53,55,57,59,61,63,65,67,69,71,-1,-1,-1,-1,-1,-1,-1,-1,-1,-1,-1,-1,-1,-1,-1,-1,-1,-1,-1,-1,-1,-1,-1,-1,-1,-1,-1,-1,-1,-1,-1,-1],"loss_changes":[4.605331E3,9.949624E2,6.240774E2,0E0,9.729021E2,3.2783264E2,7.092484E2,3.135017E2,2.0263126E2,7.4744385E1,0E0,1.972166E2,2.396195E2,1.01104004E2,8.262866E1,1.5204062E2,4.6152008E1,0E0,4.849727E1,1.8520279E1,7.940366E1,1.545568E2,7.676111E1,8.211194E1,7.010864E1,0E0,9.000537E1,8.877157E1,2.1797488E2,0E0,1.3821259E0,2.3320341E1,7.7335205E0,1.1568604E0,1.7155933E1,5.1739937E1,8.6544754E1,8.622046E1,7.258905E1,7.945199E1,7.186755E1,0E0,0E0,0E0,0E0,0E0,0E0,0E0,0E0,0E0,0E0,0E0,0E0,0E0,0E0,0E0,0E0,0E0,0E0,0E0,0E0,0E0,0E0,0E0,0E0,0E0,0E0,0E0,0E0,0E0,0E0,0E0,0E0],"parents":[2147483647,0,0,1,1,2,2,4,4,5,5,6,6,7,7,8,8,9,9,11,11,12,12,13,13,14,14,15,15,16,16,18,18,19,19,20,20,21,21,22,22,23,23,24,24,26,26,27,27,28,28,30,30,31,31,32,32,33,33,34,34,35,35,36,36,37,37,38,38,39,39,40,40],"right_children":[2,4,6,-1,8,10,12,14,16,18,-1,20,22,24,26,28,30,-1,32,34,36,38,40,42,44,-1,46,48,50,-1,52,54,56,58,60,62,64,66,68,70,72,-1,-1,-1,-1,-1,-1,-1,-1,-1,-1,-1,-1,-1,-1,-1,-1,-1,-1,-1,-1,-1,-1,-1,-1,-1,-1,-1,-1,-1,-1,-1,-1],"split_conditions":[9E0,1E0,1E0,3.1071502E-1,1.015517E0,2E0,1.055E0,4.61E-1,3E0,1E0,-1.4866285E-1,6.75E0,1.020725E0,7.2E-2,1.6E0,1.023895E0,6.2E0,3.3194694E-1,1.3E1,1.00491E0,7E0,1.3E1,7.1E0,1.68E1,1.429E-1,1.033055E-1,5E0,1.17E-1,1.58E1,5.8356453E-2,3E0,4E0,1E1,8E0,4.06E1,5.26E-2,1.1E1,2E0,3E0,1.014093E0,2E0,1.3657701E-2,-2.4878576E-1,-1.7937672E-1,-8.546525E-2,-1.517164E-1,-8.0991976E-2,-1.8764546E-2,1.3686319E-1,-7.749294E-2,2.598116E-1,-1.4825906E-1,-6.567967E-2,1.5231173E-1,-1.5070763E-2,1.2166121E-1,3.0198097E-1,-2.0162252E-1,-9.30489E-2,-1.2303871E-1,-3.6817265E-3,4.126331E-2,-7.5069994E-2,-1.4629175E-1,1.07315265E-1,-3.241271E-2,6.734139E-2,-1.0337653E-1,1.2127986E-1,2.3551512E-1,-2.0390302E-2,1.07945204E-1,1.8476693E-1],"split_indices":[0,6,8,0,6,10,7,7,10,10,0,15,6,2,14,6,14,0,0,6,26,0,15,12,19,0,0,4,12,0,8,26,14,26,13,19,27,8,20,1,16,0,0,0,0,0,0,0,0,0,0,0,0,0,0,0,0,0,0,0,0,0,0,0,0,0,0,0,0,0,0,0,0],"split_type":[0,0,0,0,0,0,0,0,0,0,0,0,0,0,0,0,0,0,0,0,0,0,0,0,0,0,0,0,0,0,0,0,0,0,0,0,0,0,0,0,0,0,0,0,0,0,0,0,0,0,0,0,0,0,0,0,0,0,0,0,0,0,0,0,0,0,0,0,0,0,0,0,0],"sum_hessian":[1.065E3,5.37E2,5.28E2,1.3E1,5.24E2,5.6E1,4.72E2,4.32E2,9.2E1,5.2E1,4E0,9.7E1,3.75E2,2.27E2,2.05E2,7.2E1,2E1,3.7E1,1.5E1,3E1,6.7E1,1.91E2,1.84E2,7.6E1,1.51E2,4E0,2.01E2,4.9E1,2.3E1,3E0,1.7E1,7E0,8E0,1.4E1,1.6E1,4E1,2.7E1,8.6E1,1.05E2,1.5E1,1.69E2,3E0,7.3E1,1.24E2,2.7E1,7.4E1,1.27E2,3.8E1,1.1E1,6E0,1.7E1,1.4E1,3E0,3E0,4E0,3E0,5E0,1.1E1,3E0,1.2E1,4E0,1.4E1,2.6E1,3E0,2.4E1,3.8E1,4.8E1,3E0,1.02E2,3E0,1.2E1,4.8E1,1.21E2],"tree_param":{"num_deleted":"0","num_feature":"32","num_nodes":"73","size_leaf_vector":"1"}},{"base_weights":[8.646858E-2,-2.073809E0,1.7796127E0,-2.9858081E0,-6.28049E-1,5.780156E-1,2.71171E0,-4.4109273E0,-2.443225E0,-1.2093939E0,7.327167E-1,1.4324516E0,-8.546728E-1,2.4459484E0,4.706942E0,-4.7091436E0,1.17896155E-1,-2.1444273E0,-4.0662856E0,8.0535376E-1,-1.583033E0,2.0680857E0,-1.0058643E0,4.943757E0,8.372865E-1,-3.079789E0,-4.257724E-1,1.9712619E0,3.5301495E0,1.3833436E0,5.2693133E0,-2.4612541E-1,-3.474349E-2,5.824622E-1,-2.465859E0,-4.3354044E0,-5.4930247E-2,4.037384E0,-1.494156E0,1.8493418E-1,-1.7656857E0,5.175958E0,9.90843E-1,-2.1790364E0,9.7179776E-1,2.8849754E-1,2.5701256E0,-1.17152624E-1,2.1014988E0,-1.6332856E0,-2.1610658E-1,3.7976382E0,-7.946091E-1,2.3379347E0,4.6725452E-1,4.134766E0,1.8595786E0,-3.5963725E-2,1.570063E-1,1.2131204E-1,2.8451768E-1,-9.215189E-2,1.875872E-1,-1.4268798E-1,-6.5848954E-2,-2.349122E-1,-1.2619364E-1,2.813518E-2,2.8404704E-1,-1.4371711E-1,2.975591E-2,-1.3665748E-1,-4.956585E-2,3.2229435E-1,1.1472789E-1,-2.0918185E-2,1.411206E-1,-1.4458476E-1,-7.311358E-2,1.9889693E-1,-8.4764294E-2,-6.747996E-2,2.5959402E-1,6.369655E-2,-5.074842E-2,7.445201E-2,1.960633E-1,-1.1593016E-1,-9.849382E-3,7.5936146E-2,2.563572E-1,-1.1807751E-1,3.220462E-3,1.0482384E-1,2.1369283E-1,-1.2008572E-2,1.7961322E-1,2.180986E-1,-2.3870861E-2,5.899186E-2,1.9643718E-1],"categories":[],"categories_nodes":[],"categories_segments":[],"categories_sizes":[],"default_left":[0,0,0,0,0,0,0,0,0,0,0,0,0,0,0,0,0,0,0,0,0,0,0,0,0,0,0,0,0,0,0,0,0,0,0,0,0,0,0,0,0,0,0,0,0,0,0,0,0,0,0,0,0,0,0,0,0,0,0,0,0,0,0,0,0,0,0,0,0,0,0,0,0,0,0,0,0,0,0,0,0,0,0,0,0,0,0,0,0,0,0,0,0,0,0,0,0,0,0,0,0],"id":10,"left_children":[1,3,5,7,9,11,13,15,17,19,21,23,25,27,29,31,-1,33,35,37,39,41,43,45,47,49,51,53,55,57,59,-1,-1,61,63,65,-1,67,69,-1,71,73,75,77,79,-1,81,83,85,87,-1,89,91,93,95,97,99,-1,-1,-1,-1,-1,-1,-1,-1,-1,-1,-1,-1,-1,-1,-1,-1,-1,-1,-1,-1,-1,-1,-1,-1,-1,-1,-1,-1,-1,-1,-1,-1,-1,-1,-1,-1,-1,-1,-1,-1,-1,-1,-1,-1],"loss_changes":[3.9539646E3,6.244275E2,6.7715564E2,2.1423755E2,1.4723485E2,3.2684564E2,1.6930444E2,1.705719E2,9.4578E1,9.9137405E1,1.3209244E2,3.4485837E2,9.412402E1,1.4898193E2,6.560535E1,6.1673706E1,0E0,1.6096075E2,2.079425E1,1.6210628E2,1.1264987E2,1.0200531E2,6.012104E1,3.223639E1,1.7399857E2,2.1693573E1,1.354263E2,1.1637256E2,8.4226074E1,2.8115505E1,2.5696472E1,0E0,0E0,1.6065646E2,6.888287E1,7.2037964E0,0E0,4.8200806E1,3.919721E1,0E0,7.745218E1,1.448291E1,6.570727E1,3.9444962E0,8.692003E1,0E0,8.921941E1,1.0495474E2,6.3262024E1,8.402145E0,0E0,1.3422096E1,1.06488556E2,7.097278E1,9.5923416E1,7.124487E1,3.1933647E1,0E0,0E0,0E0,0E0,0E0,0E0,0E0,0E0,0E0,0E0,0E0,0E0,0E0,0E0,0E0,0E0,0E0,0E0,0E0,0E0,0E0,0E0,0E0,0E0,0E0,0E0,0E0,0E0,0E0,0E0,0E0,0E0,0E0,0E0,0E0,0E0,0E0,0E0,0E0,0E0,0E0,0E0,0E0,0E0],"parents":[2147483647,0,0,1,1,2,2,3,3,4,4,5,5,6,6,7,7,8,8,9,9,10,10,11,11,12,12,13,13,14,14,15,15,17,17,18,18,19,19,20,20,21,21,22,22,23,23,24,24,25,25,26,26,27,27,28,28,29,29,30,30,33,33,34,34,35,35,37,37,38,38,40,40,41,41,42,42,43,43,44,44,46,46,47,47,48,48,49,49,51,51,52,52,53,53,54,54,55,55,56,56],"right_children":[2,4,6,8,10,12,14,16,18,20,22,24,26,28,30,32,-1,34,36,38,40,42,44,46,48,50,52,54,56,58,60,-1,-1,62,64,66,-1,68,70,-1,72,74,76,78,80,-1,82,84,86,88,-1,90,92,94,96,98,100,-1,-1,-1,-1,-1,-1,-1,-1,-1,-1,-1,-1,-1,-1,-1,-1,-1,-1,-1,-1,-1,-1,-1,-1,-1,-1,-1,-1,-1,-1,-1,-1,-1,-1,-1,-1,-1,-1,-1,-1,-1,-1,-1,-1],"split_conditions":[8E0,7.445E-1,1.491E0,1.000552E0,1.5045E0,2.7E1,3.5465E0,4E0,1.2E1,9E0,1.010657E0,1.515E-1,3E0,1.7E1,1E0,4E0,1.17896155E-1,1.001558E0,5.39E2,1.01175E0,1.00028E0,5E0,6.2E0,1.4E1,1.3E1,1E0,1.25E-2,4.9E1,2E0,1.2E1,1E0,-2.4612541E-1,-3.474349E-2,1.01E2,1E0,2.8E-1,-5.4930247E-2,1.00659E0,1.13E0,1.8493418E-1,4.1E1,2.55E1,2.45E1,4E0,8.167E0,2.8849754E-1,1.18E1,7E0,1.4E1,2.18E1,-2.1610658E-1,1.1E1,6.525E-1,1.1E1,2.611E0,1.65E1,2.7E1,-3.5963725E-2,1.570063E-1,1.2131204E-1,2.8451768E-1,-9.215189E-2,1.875872E-1,-1.4268798E-1,-6.5848954E-2,-2.349122E-1,-1.2619364E-1,2.813518E-2,2.8404704E-1,-1.4371711E-1,2.975591E-2,-1.3665748E-1,-4.956585E-2,3.2229435E-1,1.1472789E-1,-2.0918185E-2,1.411206E-1,-1.4458476E-1,-7.311358E-2,1.9889693E-1,-8.4764294E-2,-6.747996E-2,2.5959402E-1,6.369655E-2,-5.074842E-2,7.445201E-2,1.960633E-1,-1.1593016E-1,-9.849382E-3,7.5936146E-2,2.563572E-1,-1.1807751E-1,3.220462E-3,1.0482384E-1,2.1369283E-1,-1.2008572E-2,1.7961322E-1,2.180986E-1,-2.3870861E-2,5.899186E-2,1.9643718E-1],"split_indices":[0,7,7,1,7,16,7,30,23,27,1,7,20,0,9,21,0,1,22,1,1,0,25,16,0,17,7,22,10,0,20,0,0,16,30,7,0,1,2,0,27,12,12,21,25,0,14,22,20,12,0,0,7,30,7,25,22,0,0,0,0,0,0,0,0,0,0,0,0,0,0,0,0,0,0,0,0,0,0,0,0,0,0,0,0,0,0,0,0,0,0,0,0,0,0,0,0,0,0,0,0],"split_type":[0,0,0,0,0,0,0,0,0,0,0,0,0,0,0,0,0,0,0,0,0,0,0,0,0,0,0,0,0,0,0,0,0,0,0,0,0,0,0,0,0,0,0,0,0,0,0,0,0,0,0,0,0,0,0,0,0,0,0,0,0,0,0,0,0,0,0,0,0,0,0,0,0,0,0,0,0,0,0,0,0,0,0,0,0,0,0,0,0,0,0,0,0,0,0,0,0,0,0,0,0],"sum_hessian":[1.079E3,4.74E2,6.05E2,2.9E2,1.84E2,2.65E2,3.4E2,7.8E1,2.12E2,1.29E2,5.5E1,1.66E2,9.9E1,3.02E2,3.8E1,7.5E1,3E0,1.81E2,3.1E1,2E1,1.09E2,3.1E1,2.4E1,2.3E1,1.43E2,1.5E1,8.4E1,2.12E2,9E1,6E0,3.2E1,7.1E1,4E0,1.9E1,1.62E2,2.8E1,3E0,8E0,1.2E1,3E0,1.06E2,7E0,2.4E1,1.5E1,9E0,1.6E1,7E0,8.2E1,6.1E1,8E0,7E0,6E0,7.8E1,1.7E2,4.2E1,6.5E1,2.5E1,3E0,3E0,5E0,2.7E1,1.1E1,8E0,1.2E2,4.2E1,2.2E1,6E0,3E0,5E0,7E0,5E0,4.6E1,6E1,4E0,3E0,1.4E1,1E1,6E0,9E0,4E0,5E0,3E0,4E0,3.2E1,5E1,4.7E1,1.4E1,5E0,3E0,3E0,3E0,2.7E1,5.1E1,1.53E2,1.7E1,3.5E1,7E0,6.2E1,3E0,2E1,5E0],"tree_param":{"num_deleted":"0","num_feature":"32","num_nodes":"101","size_leaf_vector":"1"}},{"base_weights":[1.3406026E-1,-1.673989E0,1.8887832E0,-2.4894774E0,2.7410764E-1,1.1053708E0,3.0953448E0,2.981913E-1,-2.786994E0,4.7923937E0,-1.3287047E-1,2.884444E-1,6.902716E-1,2.7485352E0,4.9819317E0,-3.8625236E0,-2.1795678E0,-2.6373982E-2,3.220552E-1,-4.3772477E-1,2.9962442E0,-1.7394673E0,1.2061436E0,3.0152783E0,5.4721767E-1,1.22554205E-1,2.6799133E-1,-4.2390647E0,-2.0385284E0,-2.4414475E0,3.1765747E-1,3.0476785E-1,-9.1814923E-1,4.6028643E0,-8.846835E-2,-2.6845791E0,-5.357542E-1,2.9430798E-1,2.0666165E0,2.4481113E0,3.8117495E0,-2.638129E-1,1.597639E-1,-8.312237E-2,-2.2022288E-1,-1.7491935E-1,1.4620559E-1,-1.3745591E-1,-7.361852E-2,-2.8001172E-2,1.7946567E-1,-9.881215E-2,5.477512E-2,9.702326E-2,-6.5121345E-2,5.1287737E-2,2.9946876E-1,-2.1178663E-1,-9.639951E-2,-9.22691E-2,9.987577E-2,5.0392646E-2,-3.9094783E-2,1.1932614E-1,-6.3900165E-2,1.9869919E-1,9.209538E-2,2.0326073E-1,5.473284E-2,-4.225324E-2,6.5010235E-2],"categories":[],"categories_nodes":[],"categories_segments":[],"categories_sizes":[],"default_left":[0,0,0,0,0,0,0,0,0,0,0,0,0,0,0,0,0,0,0,0,0,0,0,0,0,0,0,0,0,0,0,0,0,0,0,0,0,0,0,0,0,0,0,0,0,0,0,0,0,0,0,0,0,0,0,0,0,0,0,0,0,0,0,0,0,0,0,0,0,0,0],"id":11,"left_children":[1,3,5,7,9,11,13,-1,15,17,19,-1,21,23,25,27,29,-1,-1,31,33,35,37,39,41,-1,-1,43,45,47,49,51,53,55,-1,57,59,61,63,65,67,69,-1,-1,-1,-1,-1,-1,-1,-1,-1,-1,-1,-1,-1,-1,-1,-1,-1,-1,-1,-1,-1,-1,-1,-1,-1,-1,-1,-1,-1],"loss_changes":[3.407389E3,8.4107837E2,5.117317E2,9.547151E2,2.8933517E2,6.387107E2,1.2632446E2,0E0,2.2742456E2,1.1741965E2,1.3963052E2,0E0,3.8564893E2,1.0580493E2,1.7467163E1,7.995691E1,1.5315112E2,0E0,0E0,4.7722473E1,1.0767901E2,5.9994476E1,1.978981E2,6.430078E1,4.594377E1,0E0,0E0,3.7850098E1,1.8410373E2,5.886328E1,6.80539E1,9.7759705E1,9.150596E1,4.3453384E1,0E0,2.7041122E1,8.662719E1,9.601006E1,1.4214526E2,8.3329285E1,4.100348E1,1.6553259E1,0E0,0E0,0E0,0E0,0E0,0E0,0E0,0E0,0E0,0E0,0E0,0E0,0E0,0E0,0E0,0E0,0E0,0E0,0E0,0E0,0E0,0E0,0E0,0E0,0E0,0E0,0E0,0E0,0E0],"parents":[2147483647,0,0,1,1,2,2,3,3,4,4,5,5,6,6,8,8,9,9,10,10,12,12,13,13,14,14,15,15,16,16,19,19,20,20,21,21,22,22,23,23,24,24,27,27,28,28,29,29,30,30,31,31,32,32,33,33,35,35,36,36,37,37,38,38,39,39,40,40,41,41],"right_children":[2,4,6,8,10,12,14,-1,16,18,20,-1,22,24,26,28,30,-1,-1,32,34,36,38,40,42,-1,-1,44,46,48,50,52,54,56,-1,58,60,62,64,66,68,70,-1,-1,-1,-1,-1,-1,-1,-1,-1,-1,-1,-1,-1,-1,-1,-1,-1,-1,-1,-1,-1,-1,-1,-1,-1,-1,-1,-1,-1],"split_conditions":[9E0,1.011559E0,1.02058E0,1E0,1E0,1E0,3.5465E0,2.981913E-1,3E0,1.78E1,2.3635E0,2.884444E-1,7.667E0,4E0,1E0,2.89E1,6E0,-2.6373982E-2,3.220552E-1,3.4E1,2E0,6.4E0,1.3E1,1.6E1,4.4E1,1.22554205E-1,2.6799133E-1,1E0,2E0,5E0,2.72E1,3E1,4.8E0,3E0,-8.846835E-2,1.002332E0,1.09E2,1.7E1,1.436E0,1.015519E0,1E0,1.42E1,1.597639E-1,-8.312237E-2,-2.2022288E-1,-1.7491935E-1,1.4620559E-1,-1.3745591E-1,-7.361852E-2,-2.8001172E-2,1.7946567E-1,-9.881215E-2,5.477512E-2,9.702326E-2,-6.5121345E-2,5.1287737E-2,2.9946876E-1,-2.1178663E-1,-9.639951E-2,-9.22691E-2,9.987577E-2,5.0392646E-2,-3.9094783E-2,1.1932614E-1,-6.3900165E-2,1.9869919E-1,9.209538E-2,2.0326073E-1,5.473284E-2,-4.225324E-2,6.5010235E-2],"split_indices":[0,6,6,6,8,6,7,0,0,12,7,0,14,9,9,12,21,0,0,22,10,14,0,0,22,0,0,16,30,18,12,13,14,16,0,6,22,16,4,1,18,14,0,0,0,0,0,0,0,0,0,0,0,0,0,0,0,0,0,0,0,0,0,0,0,0,0,0,0,0,0],"split_type":[0,0,0,0,0,0,0,0,0,0,0,0,0,0,0,0,0,0,0,0,0,0,0,0,0,0,0,0,0,0,0,0,0,0,0,0,0,0,0,0,0,0,0,0,0,0,0,0,0,0,0,0,0,0,0,0,0,0,0,0,0,0,0,0,0,0,0,0,0,0,0],"sum_hessian":[1.072E3,5.28E2,5.44E2,3.72E2,1.56E2,3.31E2,2.13E2,1.2E1,3.6E2,1.2E1,1.44E2,2.6E1,3.05E2,1.82E2,3.1E1,1.28E2,2.32E2,3E0,9E0,1.32E2,1.2E1,5.3E1,2.52E2,1.62E2,2E1,5E0,2.6E1,1.05E2,2.3E1,2.1E2,2.2E1,5.2E1,8E1,9E0,3E0,2.9E1,2.4E1,1.23E2,1.29E2,9.7E1,6.5E1,1.6E1,4E0,7E0,9.8E1,1.8E1,5E0,1.58E2,5.2E1,1.8E1,4E0,1.3E1,3.9E1,9E0,7.1E1,3E0,6E0,8E0,2.1E1,1.6E1,8E0,7.4E1,4.9E1,1.18E2,1.1E1,2.6E1,7.1E1,5.9E1,6E0,1.2E1,4E0],"tree_param":{"num_deleted":"0","num_feature":"32","num_nodes":"71","size_leaf_vector":"1"}},{"base_weights":[6.716914E-2,-1.4042919E0,1.8424141E0,2.820873E-1,-1.8318698E0,1.2209443E0,3.1611867E0,-3.1192188E0,-7.502301E-1,5.22116E-1,2.1172292E0,2.6789937E0,4.6396184E0,-4.271806E0,-2.564743E0,1.0797523E0,-1.1409426E0,-1.1901908E-1,1.291371E0,1.2758957E0,2.9410849E0,3.1286533E0,7.499946E-1,3.05993E-2,5.109271E0,-2.852783E0,-2.3020796E-1,2.263656E-1,-2.7728891E0,3.69809E-1,5.6317455E-1,-2.2523415E0,-7.322686E-1,1.9892718E0,-6.446749E-1,-5.962941E-1,1.8724256E0,7.1885526E-1,3.8344042E0,3.2720084E0,-6.464796E-1,2.6618514E0,4.514805E0,-5.412729E-1,3.4001887E0,2.653615E-1,1.1736324E-1,-1.8316646E-1,4.499806E-2,-6.2885724E-2,1.9399874E-1,-1.7475346E-1,-1.0037803E-1,-5.5505227E-2,1.245934E-1,7.062399E-2,-1.2537245E-1,-5.2910753E-2,2.3787122E-2,-2.1798696E-2,1.7576335E-1,-5.5159938E-2,7.690409E-2,9.538439E-2,-7.490095E-2,1.37226E-2,1.3603865E-1,1.0031022E-2,1.0981208E-1,2.4317852E-1,9.115576E-2,1.7844668E-1,-5.618248E-2,1.01756446E-1,-1.583234E-1,2.1367171E-1,1.0761905E-1,2.4278958E-1,1.3696891E-1,2.7561424E-2,-1.3180317E-1,7.500774E-2,2.1200891E-1],"categories":[],"categories_nodes":[],"categories_segments":[],"categories_sizes":[],"default_left":[0,0,0,0,0,0,0,0,0,0,0,0,0,0,0,0,0,0,0,0,0,0,0,0,0,0,0,0,0,0,0,0,0,0,0,0,0,0,0,0,0,0,0,0,0,0,0,0,0,0,0,0,0,0,0,0,0,0,0,0,0,0,0,0,0,0,0,0,0,0,0,0,0,0,0,0,0,0,0,0,0,0,0],"id":12,"left_children":[1,3,5,-1,7,9,11,13,15,17,19,21,23,25,27,29,31,33,35,37,39,41,43,-1,45,47,-1,49,51,-1,53,55,57,59,61,63,65,67,69,71,73,75,77,79,81,-1,-1,-1,-1,-1,-1,-1,-1,-1,-1,-1,-1,-1,-1,-1,-1,-1,-1,-1,-1,-1,-1,-1,-1,-1,-1,-1,-1,-1,-1,-1,-1,-1,-1,-1,-1,-1,-1],"loss_changes":[2.818543E3,1.7878462E3,3.9691357E2,0E0,7.7325354E2,2.0809525E2,9.878125E1,1.513706E2,2.1859099E2,9.336783E1,9.7445496E1,1.0174066E2,6.6862E1,2.5066284E1,1.01714355E2,1.7203265E2,1.1235483E2,1.1653891E2,9.544443E1,1.02707886E2,8.8781555E1,5.074695E1,8.3971054E1,0E0,5.5856934E0,5.8048767E1,0E0,7.536913E1,8.252173E1,0E0,1.6735559E2,6.618158E1,7.3346596E1,7.9251755E1,8.5767876E1,5.027371E1,8.872528E1,4.7028637E1,1.8042511E1,9.14574E1,5.3747528E1,5.2381042E1,6.222534E-1,4.0358616E1,6.4071426E0,0E0,0E0,0E0,0E0,0E0,0E0,0E0,0E0,0E0,0E0,0E0,0E0,0E0,0E0,0E0,0E0,0E0,0E0,0E0,0E0,0E0,0E0,0E0,0E0,0E0,0E0,0E0,0E0,0E0,0E0,0E0,0E0,0E0,0E0,0E0,0E0,0E0,0E0],"parents":[2147483647,0,0,1,1,2,2,4,4,5,5,6,6,7,7,8,8,9,9,10,10,11,11,12,12,13,13,14,14,15,15,16,16,17,17,18,18,19,19,20,20,21,21,22,22,24,24,25,25,27,27,28,28,30,30,31,31,32,32,33,33,34,34,35,35,36,36,37,37,38,38,39,39,40,40,41,41,42,42,43,43,44,44],"right_children":[2,4,6,-1,8,10,12,14,16,18,20,22,24,26,28,30,32,34,36,38,40,42,44,-1,46,48,-1,50,52,-1,54,56,58,60,62,64,66,68,70,72,74,76,78,80,82,-1,-1,-1,-1,-1,-1,-1,-1,-1,-1,-1,-1,-1,-1,-1,-1,-1,-1,-1,-1,-1,-1,-1,-1,-1,-1,-1,-1,-1,-1,-1,-1,-1,-1,-1,-1,-1,-1],"split_conditions":[1.014151E0,1E0,2.222E0,2.820873E-1,4.61E-1,1.01756E0,3.5465E0,1.25E-2,7E0,4.1E1,8.167E0,4E0,1E0,1.6E1,2E0,1.003255E0,3E0,1.009158E0,7.21E-1,1.5E1,4E0,2.68E1,1.1E1,3.05993E-2,8.2E1,1.2E1,-2.3020796E-1,1.47E2,5E-2,3.69809E-1,1.078E0,1.3E1,1.51E0,1.89E1,8E0,1.8E1,1.4695E0,1.028061E0,1.6E1,3.66E1,1.019044E0,2.16E1,1.4E1,3.034E0,1.304E-1,2.653615E-1,1.1736324E-1,-1.8316646E-1,4.499806E-2,-6.2885724E-2,1.9399874E-1,-1.7475346E-1,-1.0037803E-1,-5.5505227E-2,1.245934E-1,7.062399E-2,-1.2537245E-1,-5.2910753E-2,2.3787122E-2,-2.1798696E-2,1.7576335E-1,-5.5159938E-2,7.690409E-2,9.538439E-2,-7.490095E-2,1.37226E-2,1.3603865E-1,1.0031022E-2,1.0981208E-1,2.4317852E-1,9.115576E-2,1.7844668E-1,-5.618248E-2,1.01756446E-1,-1.583234E-1,2.1367171E-1,1.0761905E-1,2.4278958E-1,1.3696891E-1,2.7561424E-2,-1.3180317E-1,7.500774E-2,2.1200891E-1],"split_indices":[6,6,7,0,7,1,7,7,22,27,25,9,9,27,9,1,21,1,2,14,9,12,20,0,27,27,0,16,19,0,2,22,2,12,21,12,7,1,14,12,6,12,14,7,19,0,0,0,0,0,0,0,0,0,0,0,0,0,0,0,0,0,0,0,0,0,0,0,0,0,0,0,0,0,0,0,0,0,0,0,0,0,0],"split_type":[0,0,0,0,0,0,0,0,0,0,0,0,0,0,0,0,0,0,0,0,0,0,0,0,0,0,0,0,0,0,0,0,0,0,0,0,0,0,0,0,0,0,0,0,0,0,0,0,0,0,0,0,0,0,0,0,0,0,0,0,0,0,0,0,0,0,0,0,0,0,0,0,0,0,0,0,0,0,0,0,0,0,0],"sum_hessian":[1.077E3,5.89E2,4.88E2,3.3E1,5.56E2,3.33E2,1.55E2,2.53E2,3.03E2,1.88E2,1.45E2,1.19E2,3.6E1,8E1,1.73E2,5.3E1,2.5E2,1.03E2,8.5E1,7.3E1,7.2E1,9.6E1,2.3E1,4E0,3.2E1,1.7E1,6.3E1,1.2E1,1.61E2,3E0,5E1,6.6E1,1.84E2,2E1,8.3E1,2E1,6.5E1,6.1E1,1.2E1,6.6E1,6E0,7.4E1,2.2E1,1.6E1,7E0,2.9E1,3E0,1.4E1,3E0,9E0,3E0,8.1E1,8E1,2.7E1,2.3E1,4E0,6.2E1,1.45E2,3.9E1,8E0,1.2E1,6.9E1,1.4E1,5E0,1.5E1,2.3E1,4.2E1,4.6E1,1.5E1,7E0,5E0,6.2E1,4E0,3E0,3E0,1.6E1,5.8E1,1.7E1,5E0,1.1E1,5E0,3E0,4E0],"tree_param":{"num_deleted":"0","num_feature":"32","num_nodes":"83","size_leaf_vector":"1"}},{"base_weights":[-2.8730152E-2,-2.1673467E0,1.3071456E0,2.732844E-1,-2.311349E0,4.1657263E-1,2.392256E0,-2.6877637E0,7.9315615E-1,2.6259354E-1,-1.382828E-2,1.7057934E0,3.1750956E0,-3.5343018E0,-2.087447E0,1.9325182E-1,3.125452E-1,-1.6692896E0,7.393594E-1,1.1022505E0,3.4039578E0,3.4307997E0,-1.1226194E-1,4.2515613E-2,-3.6602523E0,3.879221E-1,-2.287416E0,-5.4730594E-1,2.1404903E0,-2.8446982E0,-1.1225629E0,2.1078642E-2,1.7641863E0,1.5729363E0,-8.6564356E-1,1.9348962E-2,3.9675217E0,4.094734E0,2.6702533E0,-1.466322E0,9.029373E-2,-2.0026176E-1,-1.1256377E-1,3.4783655E-1,-7.5829454E-2,-1.3407363E-1,-6.258874E-2,1.1560924E-1,-4.9146615E-2,2.0583165E-1,1.9541103E-2,-1.6168688E-1,3.921348E-2,-7.736569E-2,3.256389E-2,3.18936E-2,-4.3330394E-2,-4.9285702E-2,1.1427982E-1,6.082676E-2,2.012883E-1,-6.737241E-2,6.173519E-2,1.1469912E-1,-1.1300608E-1,2.1024297E-1,5.088042E-2,1.3796867E-1,2.3021315E-1,1.4485191E-1,-2.6993027E-2,-2.558632E-2,-1.02716856E-1],"categories":[],"categories_nodes":[],"categories_segments":[],"categories_sizes":[],"default_left":[0,0,0,0,0,0,0,0,0,0,0,0,0,0,0,0,0,0,0,0,0,0,0,0,0,0,0,0,0,0,0,0,0,0,0,0,0,0,0,0,0,0,0,0,0,0,0,0,0,0,0,0,0,0,0,0,0,0,0,0,0,0,0,0,0,0,0,0,0,0,0,0,0],"id":13,"left_children":[1,3,5,-1,7,9,11,13,15,-1,17,19,21,23,25,-1,27,29,31,33,35,37,39,-1,41,43,45,47,49,51,53,55,57,59,61,63,65,67,69,71,-1,-1,-1,-1,-1,-1,-1,-1,-1,-1,-1,-1,-1,-1,-1,-1,-1,-1,-1,-1,-1,-1,-1,-1,-1,-1,-1,-1,-1,-1,-1,-1,-1],"loss_changes":[3.0911702E3,4.6988953E2,6.4260596E2,0E0,4.8008154E2,7.638424E2,1.558009E2,1.781123E2,6.5229065E1,0E0,4.226773E2,1.6228427E2,1.1722742E2,8.5948975E1,1.0780676E2,0E0,6.404194E1,6.492514E1,1.7147723E2,1.1343904E2,8.003589E1,5.4204834E1,3.1217983E1,0E0,6.194983E1,2.2322676E2,7.826367E1,3.7151463E1,4.333986E1,4.9125885E1,5.676232E1,7.611042E1,1.3990024E2,8.077324E1,2.5950672E1,4.1479397E1,2.0925537E1,3.2882324E1,4.7428345E1,2.8779573E0,0E0,0E0,0E0,0E0,0E0,0E0,0E0,0E0,0E0,0E0,0E0,0E0,0E0,0E0,0E0,0E0,0E0,0E0,0E0,0E0,0E0,0E0,0E0,0E0,0E0,0E0,0E0,0E0,0E0,0E0,0E0,0E0,0E0],"parents":[2147483647,0,0,1,1,2,2,4,4,5,5,6,6,7,7,8,8,10,10,11,11,12,12,13,13,14,14,16,16,17,17,18,18,19,19,20,20,21,21,22,22,24,24,25,25,26,26,27,27,28,28,29,29,30,30,31,31,32,32,33,33,34,34,35,35,36,36,37,37,38,38,39,39],"right_children":[2,4,6,-1,8,10,12,14,16,-1,18,20,22,24,26,-1,28,30,32,34,36,38,40,-1,42,44,46,48,50,52,54,56,58,60,62,64,66,68,70,72,-1,-1,-1,-1,-1,-1,-1,-1,-1,-1,-1,-1,-1,-1,-1,-1,-1,-1,-1,-1,-1,-1,-1,-1,-1,-1,-1,-1,-1,-1,-1,-1,-1],"split_conditions":[7E0,1E0,1.018274E0,2.732844E-1,1.016218E0,1E0,1.595E0,2.963E-1,1E0,2.6259354E-1,9E0,1.029807E0,4.8E1,2E0,3.412E-1,1.9325182E-1,6.2E0,1.005432E0,1.3E1,3E0,2.05E1,1E0,1.02356E0,4.2515613E-2,1.00491E0,1.9E1,1.25E-1,3E0,1.12E1,9.3E1,1.02E1,1.121E0,1.009455E0,3.04E-1,1.3E1,1.011429E0,1.020952E0,1.5E1,3.684E-1,4.26E-1,9.029373E-2,-2.0026176E-1,-1.1256377E-1,3.4783655E-1,-7.5829454E-2,-1.3407363E-1,-6.258874E-2,1.1560924E-1,-4.9146615E-2,2.0583165E-1,1.9541103E-2,-1.6168688E-1,3.921348E-2,-7.736569E-2,3.256389E-2,3.18936E-2,-4.3330394E-2,-4.9285702E-2,1.1427982E-1,6.082676E-2,2.012883E-1,-6.737241E-2,6.173519E-2,1.1469912E-1,-1.1300608E-1,2.1024297E-1,5.088042E-2,1.3796867E-1,2.3021315E-1,1.4485191E-1,-2.6993027E-2,-2.558632E-2,-1.02716856E-1],"split_indices":[0,6,6,0,6,6,2,3,8,0,15,6,16,9,3,0,25,6,0,10,13,10,1,0,6,16,19,20,25,27,25,2,6,4,30,1,1,0,19,4,0,0,0,0,0,0,0,0,0,0,0,0,0,0,0,0,0,0,0,0,0,0,0,0,0,0,0,0,0,0,0,0,0],"split_type":[0,0,0,0,0,0,0,0,0,0,0,0,0,0,0,0,0,0,0,0,0,0,0,0,0,0,0,0,0,0,0,0,0,0,0,0,0,0,0,0,0,0,0,0,0,0,0,0,0,0,0,0,0,0,0,0,0,0,0,0,0,0,0,0,0,0,0,0,0,0,0,0,0],"sum_hessian":[1.08E3,4.15E2,6.65E2,7E0,4.08E2,3.66E2,2.99E2,3.64E2,4.4E1,2.9E1,3.37E2,1.61E2,1.38E2,1.49E2,2.15E2,5E0,3.9E1,1.05E2,2.32E2,1.2E2,4.1E1,1.28E2,1E1,4E0,1.45E2,1.6E1,1.99E2,2.7E1,1.2E1,3.2E1,7.3E1,1.37E2,9.5E1,9.7E1,2.3E1,6E0,3.5E1,6.6E1,6.2E1,6E0,4E0,1.15E2,3E1,3E0,1.3E1,1.43E2,5.6E1,3E0,2.4E1,5E0,7E0,2.9E1,3E0,5.9E1,1.4E1,8.1E1,5.6E1,1.5E1,8E1,8.6E1,1.1E1,1.9E1,4E0,3E0,3E0,3.2E1,3E0,2E1,4.6E1,5.8E1,4E0,3E0,3E0],"tree_param":{"num_deleted":"0","num_feature":"32","num_nodes":"73","size_leaf_vector":"1"}},{"base_weights":[-1.0044626E-1,-1.3918628E0,1.6320237E0,2.5550967E-1,-1.7469727E0,1.2514329E0,3.0691018E0,-2.9041317E0,-8.42026E-1,1.6453716E0,-5.7993734E-1,2.344805E0,2.4505448E-1,-3.7888677E0,-2.3640442E0,-1.4551123E0,3.5334685E-1,8.3370554E-1,2.2078784E0,-1.5249866E0,9.9314094E-1,2.6670508E0,-4.8598087E-1,-3.87314E0,-4.516923E-2,1.1717238E-1,-2.5299475E0,-1.5613133E0,1.9539598E0,1.8331981E0,-4.942538E-1,4.5318514E-1,3.2020876E0,2.337465E0,-1.2546388E0,-5.590303E-1,-1.8605362E0,2.0697047E-1,2.9851549E0,9.482187E-1,3.184431E0,-7.8267135E-2,4.9235832E-2,-1.2995432E-1,-2.0636356E-1,-1.4350073E-1,-5.029996E-2,6.4404845E-2,-8.399753E-2,-1.7995238E-2,1.8896674E-1,-8.68143E-2,1.1330074E-1,-3.8575005E-2,7.66096E-2,1.3888389E-2,2.4722973E-1,9.626341E-3,2.413082E-1,1.9395481E-1,1.0224571E-1,-1.020626E-1,-7.718301E-3,2.4864048E-2,-1.06866114E-1,-1.22972265E-1,-5.9138775E-2,-1.2064796E-1,4.245086E-2,7.678654E-2,1.8441452E-1,-1.0127262E-2,1.7602043E-1,1.3061103E-1,2.2620289E-1],"categories":[],"categories_nodes":[],"categories_segments":[],"categories_sizes":[],"default_left":[0,0,0,0,0,0,0,0,0,0,0,0,0,0,0,0,0,0,0,0,0,0,0,0,0,0,0,0,0,0,0,0,0,0,0,0,0,0,0,0,0,0,0,0,0,0,0,0,0,0,0,0,0,0,0,0,0,0,0,0,0,0,0,0,0,0,0,0,0,0,0,0,0,0,0],"id":14,"left_children":[1,3,5,-1,7,9,11,13,15,17,19,21,-1,23,25,27,29,31,33,35,37,39,41,43,-1,-1,45,47,49,51,53,55,57,59,61,63,65,67,69,71,73,-1,-1,-1,-1,-1,-1,-1,-1,-1,-1,-1,-1,-1,-1,-1,-1,-1,-1,-1,-1,-1,-1,-1,-1,-1,-1,-1,-1,-1,-1,-1,-1,-1,-1],"loss_changes":[2.3939885E3,1.42431E3,2.461101E2,0E0,6.070061E2,2.6283966E2,1.1456372E2,1.1289087E2,2.4089444E2,1.3467297E2,9.81459E1,6.515073E1,0E0,1.9601807E1,1.3166779E2,8.16149E1,1.4139024E2,1.1029986E2,8.190326E1,1.2249084E1,3.853373E1,5.3005737E1,1.4240738E1,1.9060303E1,0E0,0E0,7.7958984E1,7.34917E1,3.0925894E1,6.727667E1,4.163344E1,8.371661E1,8.2162674E1,6.87384E1,5.7433243E0,2.106886E1,9.268539E0,3.400887E1,1.4697685E0,4.8072773E1,2.4976501E1,0E0,0E0,0E0,0E0,0E0,0E0,0E0,0E0,0E0,0E0,0E0,0E0,0E0,0E0,0E0,0E0,0E0,0E0,0E0,0E0,0E0,0E0,0E0,0E0,0E0,0E0,0E0,0E0,0E0,0E0,0E0,0E0,0E0,0E0],"parents":[2147483647,0,0,1,1,2,2,4,4,5,5,6,6,7,7,8,8,9,9,10,10,11,11,13,13,14,14,15,15,16,16,17,17,18,18,19,19,20,20,21,21,22,22,23,23,26,26,27,27,28,28,29,29,30,30,31,31,32,32,33,33,34,34,35,35,36,36,37,37,38,38,39,39,40,40],"right_children":[2,4,6,-1,8,10,12,14,16,18,20,22,-1,24,26,28,30,32,34,36,38,40,42,44,-1,-1,46,48,50,52,54,56,58,60,62,64,66,68,70,72,74,-1,-1,-1,-1,-1,-1,-1,-1,-1,-1,-1,-1,-1,-1,-1,-1,-1,-1,-1,-1,-1,-1,-1,-1,-1,-1,-1,-1,-1,-1,-1,-1,-1,-1],"split_conditions":[1.014609E0,1E0,1.029428E0,2.5550967E-1,4.61E-1,3E0,2.55E1,1.85E-2,1E1,1.1E1,1.4E1,5E0,2.4505448E-1,8.9E1,3.7E-2,1.3833E1,7E0,1.023895E0,5.8E1,1.89E1,1.022991E0,1.58E1,1E1,1.6E1,-4.516923E-2,1.1717238E-1,2E0,4.825E-1,1.00881E0,1.010933E0,1.2E1,1.029117E0,1E0,2.46E1,1.021792E0,2.042E0,1.015476E0,1.8E1,1.6E1,1.8E1,3.5465E0,-7.8267135E-2,4.9235832E-2,-1.2995432E-1,-2.0636356E-1,-1.4350073E-1,-5.029996E-2,6.4404845E-2,-8.399753E-2,-1.7995238E-2,1.8896674E-1,-8.68143E-2,1.1330074E-1,-3.8575005E-2,7.66096E-2,1.3888389E-2,2.4722973E-1,9.626341E-3,2.413082E-1,1.9395481E-1,1.0224571E-1,-1.020626E-1,-7.718301E-3,2.4864048E-2,-1.06866114E-1,-1.22972265E-1,-5.9138775E-2,-1.2064796E-1,4.245086E-2,7.678654E-2,1.8441452E-1,-1.0127262E-2,1.7602043E-1,1.3061103E-1,2.2620289E-1],"split_indices":[6,6,6,0,7,10,12,7,0,0,0,9,0,27,7,15,16,6,16,12,6,12,0,27,0,0,30,7,6,1,30,1,16,13,1,7,1,12,0,0,7,0,0,0,0,0,0,0,0,0,0,0,0,0,0,0,0,0,0,0,0,0,0,0,0,0,0,0,0,0,0,0,0,0,0],"split_type":[0,0,0,0,0,0,0,0,0,0,0,0,0,0,0,0,0,0,0,0,0,0,0,0,0,0,0,0,0,0,0,0,0,0,0,0,0,0,0,0,0,0,0,0,0,0,0,0,0,0,0,0,0,0,0,0,0,0,0,0,0,0,0,0,0,0,0,0,0,0,0,0,0,0,0],"sum_hessian":[1.068E3,6.12E2,4.56E2,3.1E1,5.81E2,3.62E2,9.4E1,2.54E2,3.27E2,2.98E2,6.4E1,6.9E1,2.5E1,9.4E1,1.6E2,2.16E2,1.11E2,1.23E2,1.75E2,4E1,2.4E1,6.2E1,7E0,9.1E1,3E0,5E0,1.55E2,2.1E2,6E0,4E1,7.1E1,1.07E2,1.6E1,1.69E2,6E0,1.1E1,2.9E1,1.8E1,6E0,1.5E1,4.7E1,4E0,3E0,1.7E1,7.4E1,1.26E2,2.9E1,8E0,2.02E2,3E0,3E0,4E0,3.6E1,6.3E1,8E0,1.04E2,3E0,6E0,1E1,2.5E1,1.44E2,3E0,3E0,7E0,4E0,1.4E1,1.5E1,3E0,1.5E1,3E0,3E0,1.1E1,4E0,3.5E1,1.2E1],"tree_param":{"num_deleted":"0","num_feature":"32","num_nodes":"75","size_leaf_vector":"1"}},{"base_weights":[4.5488868E-2,-1.4940096E0,1.5707277E0,2.5009838E-1,-1.6517162E0,8.860684E-1,2.6273077E0,-2.4640865E0,-1.7807144E-1,2.3480816E-1,5.594392E-1,2.305753E0,4.002814E0,-2.9225378E0,-1.5088097E0,-5.662725E-1,1.6624571E0,-1.2937639E0,1.0646341E0,2.4607468E0,7.204743E-1,8.28882E-2,4.2989163E0,-3.5761604E0,-2.5237322E0,-1.8761203E0,1.7084559E0,1.9281757E0,-7.8753334E-1,7.504941E-1,2.820604E-1,-2.2550611E0,-2.019149E-1,-1.2753314E-1,1.385308E0,2.0626106E0,3.0832944E0,-1.0135368E0,2.3744326E0,8.5630395E-2,4.4939585E0,-1.988261E-1,-1.1335589E-1,-7.6873645E-2,-1.5546817E-1,-9.9395566E-2,6.658944E-2,1.8514875E-1,-9.122328E-2,3.1201774E-1,-7.734902E-2,-6.5985754E-2,-1.0241831E-3,1.2478608E-1,-3.572046E-2,-1.2596242E-1,2.1110011E-2,-6.863887E-2,9.319603E-2,5.595572E-2,-5.040684E-2,1.4529123E-2,9.203184E-2,1.8349366E-1,7.811152E-2,1.6374163E-1,4.0682252E-2,-8.648705E-2,1.5707685E-2,1.9354813E-1,2.0150824E-2,2.4118987E-1,1.3369845E-1],"categories":[],"categories_nodes":[],"categories_segments":[],"categories_sizes":[],"default_left":[0,0,0,0,0,0,0,0,0,0,0,0,0,0,0,0,0,0,0,0,0,0,0,0,0,0,0,0,0,0,0,0,0,0,0,0,0,0,0,0,0,0,0,0,0,0,0,0,0,0,0,0,0,0,0,0,0,0,0,0,0,0,0,0,0,0,0,0,0,0,0,0,0],"id":15,"left_children":[1,3,5,-1,7,9,11,13,15,-1,17,19,21,23,25,27,29,31,33,35,37,-1,39,41,43,45,47,49,51,53,-1,55,57,59,61,63,65,67,69,-1,71,-1,-1,-1,-1,-1,-1,-1,-1,-1,-1,-1,-1,-1,-1,-1,-1,-1,-1,-1,-1,-1,-1,-1,-1,-1,-1,-1,-1,-1,-1,-1,-1],"loss_changes":[2.5382979E3,5.5942065E2,3.904768E2,0E0,6.292595E2,4.092984E2,8.498035E1,1.4405493E2,1.352665E2,0E0,2.878634E2,4.1226074E1,1.995404E1,5.0407104E1,1.3555968E2,8.761858E1,1.1550594E2,6.88177E1,9.231024E1,3.3049866E1,5.1162273E1,0E0,9.45459E0,3.5008423E1,7.896918E1,3.8867615E1,9.131369E1,2.0446515E2,5.8755188E1,7.336748E1,0E0,2.5819046E1,7.996065E1,5.821394E1,9.417258E1,7.469104E1,2.3418884E1,9.1014805E0,2.4992481E1,0E0,5.7106934E0,0E0,0E0,0E0,0E0,0E0,0E0,0E0,0E0,0E0,0E0,0E0,0E0,0E0,0E0,0E0,0E0,0E0,0E0,0E0,0E0,0E0,0E0,0E0,0E0,0E0,0E0,0E0,0E0,0E0,0E0,0E0,0E0],"parents":[2147483647,0,0,1,1,2,2,4,4,5,5,6,6,7,7,8,8,10,10,11,11,12,12,13,13,14,14,15,15,16,16,17,17,18,18,19,19,20,20,22,22,23,23,24,24,25,25,26,26,27,27,28,28,29,29,31,31,32,32,33,33,34,34,35,35,36,36,37,37,38,38,40,40],"right_children":[2,4,6,-1,8,10,12,14,16,-1,18,20,22,24,26,28,30,32,34,36,38,-1,40,42,44,46,48,50,52,54,-1,56,58,60,62,64,66,68,70,-1,72,-1,-1,-1,-1,-1,-1,-1,-1,-1,-1,-1,-1,-1,-1,-1,-1,-1,-1,-1,-1,-1,-1,-1,-1,-1,-1,-1,-1,-1,-1,-1,-1],"split_conditions":[9E0,1E0,1.02058E0,2.5009838E-1,1.010289E0,1E0,3.32E0,5E0,1.023895E0,2.3480816E-1,8.9E0,4E0,1E0,7.2E-2,6E0,3E0,1.1E1,2.58E-1,9.91E-1,1.6E1,5E0,8.28882E-2,1E0,5.8E0,3E0,1.8E1,1.009383E0,5.5E0,4.6E1,1E0,2.820604E-1,8E0,1.107E0,6.67E-2,1.2E1,1.01441E0,1E0,1.3E1,1.79E1,8.5630395E-2,8.2E1,-1.988261E-1,-1.1335589E-1,-7.6873645E-2,-1.5546817E-1,-9.9395566E-2,6.658944E-2,1.8514875E-1,-9.122328E-2,3.1201774E-1,-7.734902E-2,-6.5985754E-2,-1.0241831E-3,1.2478608E-1,-3.572046E-2,-1.2596242E-1,2.1110011E-2,-6.863887E-2,9.319603E-2,5.595572E-2,-5.040684E-2,1.4529123E-2,9.203184E-2,1.8349366E-1,7.811152E-2,1.6374163E-1,4.0682252E-2,-8.648705E-2,1.5707685E-2,1.9354813E-1,2.0150824E-2,2.4118987E-1,1.3369845E-1],"split_indices":[0,6,6,0,6,6,7,0,6,0,15,9,20,2,21,0,20,4,7,0,22,0,9,15,20,26,6,15,27,11,0,20,7,19,0,1,18,20,12,0,27,0,0,0,0,0,0,0,0,0,0,0,0,0,0,0,0,0,0,0,0,0,0,0,0,0,0,0,0,0,0,0,0],"split_type":[0,0,0,0,0,0,0,0,0,0,0,0,0,0,0,0,0,0,0,0,0,0,0,0,0,0,0,0,0,0,0,0,0,0,0,0,0,0,0,0,0,0,0,0,0,0,0,0,0,0,0,0,0,0,0,0,0,0,0,0,0,0,0,0,0,0,0,0,0,0,0,0,0],"sum_hessian":[1.079E3,5.37E2,5.42E2,1.2E1,5.25E2,3.3E2,2.12E2,3.38E2,1.87E2,2.5E1,3.05E2,1.74E2,3.8E1,2.27E2,1.11E2,1.55E2,3.2E1,6.5E1,2.4E2,1.58E2,1.6E1,5E0,3.3E1,8.3E1,1.44E2,1E2,1.1E1,1.2E1,1.43E2,2.7E1,5E0,3.4E1,3.1E1,5.1E1,1.89E2,9.9E1,5.9E1,8E0,8E0,3E0,3E1,6.2E1,2.1E1,5.5E1,8.9E1,9.7E1,3E0,7E0,4E0,5E0,7E0,8.4E1,5.9E1,1.2E1,1.5E1,3.1E1,3E0,2E1,1.1E1,2.1E1,3E1,5.6E1,1.33E2,2.2E1,7.7E1,5.4E1,5E0,5E0,3E0,4E0,4E0,2.4E1,6E0],"tree_param":{"num_deleted":"0","num_feature":"32","num_nodes":"73","size_leaf_vector":"1"}},{"base_weights":[2.4842372E-2,-1.2701399E0,1.5032955E0,2.3023601E-1,-1.6383684E0,1.0130731E0,2.8383596E0,-2.299221E0,-4.3203968E-1,1.2530143E0,-9.8577034E-1,3.3303487E0,1.4585407E0,-3.4759538E0,-1.8996983E0,-1.8052348E0,3.8228385E-2,7.4693054E-1,1.890066E0,-2.44587E0,-1.1875686E-2,8.656694E-1,3.8740807E0,-3.1933987E-1,2.6852474E0,-3.564888E0,-6.522278E-2,1.1486081E-1,-1.9902889E0,-2.1432338E0,1.9491446E-1,3.2795131E0,-2.5450578E-1,5.664667E-1,3.848402E0,2.3367105E0,1.00038975E-1,-1.3984455E-1,-5.571229E-2,1.4447917E0,-1.7103313E0,-1.1463617E-1,1.8167262E-1,4.262204E0,2.0551987E0,1.296325E0,-1.4183713E0,3.420536E0,6.209809E-1,-1.419033E-1,-1.8826471E-1,-1.1491392E-1,-4.5887176E-2,-1.17196284E-1,1.7465955E-2,-2.710694E-2,3.7278708E-2,3.1166884E-1,5.117047E-2,6.328115E-3,-1.09146014E-1,8.659202E-3,7.030613E-2,2.5928286E-1,2.7305258E-2,1.362649E-1,2.2451876E-2,-6.609529E-2,1.0305952E-1,-2.3996973E-2,1.4741664E-1,2.5252057E-2,-1.2524523E-1,9.2149585E-2,-6.388747E-2,1.8303987E-1,2.6006302E-1,1.3326477E-1,-2.2070706E-2,1.335907E-1,-2.016226E-2,-1.06126904E-1,8.425665E-3,4.8774112E-2,1.9548711E-1,-2.126038E-2,7.559621E-2],"categories":[],"categories_nodes":[],"categories_segments":[],"categories_sizes":[],"default_left":[0,0,0,0,0,0,0,0,0,0,0,0,0,0,0,0,0,0,0,0,0,0,0,0,0,0,0,0,0,0,0,0,0,0,0,0,0,0,0,0,0,0,0,0,0,0,0,0,0,0,0,0,0,0,0,0,0,0,0,0,0,0,0,0,0,0,0,0,0,0,0,0,0,0,0,0,0,0,0,0,0,0,0,0,0,0,0],"id":16,"left_children":[1,3,5,-1,7,9,11,13,15,17,19,21,23,25,27,29,31,33,35,37,39,41,43,45,47,49,-1,-1,51,53,55,57,59,61,63,65,67,-1,-1,69,71,73,-1,75,77,79,81,83,85,-1,-1,-1,-1,-1,-1,-1,-1,-1,-1,-1,-1,-1,-1,-1,-1,-1,-1,-1,-1,-1,-1,-1,-1,-1,-1,-1,-1,-1,-1,-1,-1,-1,-1,-1,-1,-1,-1],"loss_changes":[2.054329E3,1.2449464E3,3.2501807E2,0E0,4.2870044E2,1.7772986E2,8.610925E1,1.5700244E2,1.2405682E2,1.04658264E2,5.6850285E1,1.27978516E2,8.155222E1,1.2151245E1,1.04184875E2,3.354413E1,1.3746686E2,1.01365166E2,1.1569458E2,4.362419E0,6.4323204E1,5.1968708E1,4.771643E1,3.0249334E1,3.1268219E1,1.4036865E0,0E0,0E0,8.2786194E1,2.1828644E1,3.651129E0,7.359137E1,9.801228E1,5.7875565E1,4.1328217E1,8.3865234E1,8.638417E1,0E0,0E0,4.1929794E1,2.2388386E1,3.6509018E1,0E0,1.7668213E1,2.5547295E1,1.7441578E1,1.153199E1,1.5324265E1,7.167544E0,0E0,0E0,0E0,0E0,0E0,0E0,0E0,0E0,0E0,0E0,0E0,0E0,0E0,0E0,0E0,0E0,0E0,0E0,0E0,0E0,0E0,0E0,0E0,0E0,0E0,0E0,0E0,0E0,0E0,0E0,0E0,0E0,0E0,0E0,0E0,0E0,0E0,0E0],"parents":[2147483647,0,0,1,1,2,2,4,4,5,5,6,6,7,7,8,8,9,9,10,10,11,11,12,12,13,13,14,14,15,15,16,16,17,17,18,18,19,19,20,20,21,21,22,22,23,23,24,24,25,25,28,28,29,29,30,30,31,31,32,32,33,33,34,34,35,35,36,36,39,39,40,40,41,41,43,43,44,44,45,45,46,46,47,47,48,48],"right_children":[2,4,6,-1,8,10,12,14,16,18,20,22,24,26,28,30,32,34,36,38,40,42,44,46,48,50,-1,-1,52,54,56,58,60,62,64,66,68,-1,-1,70,72,74,-1,76,78,80,82,84,86,-1,-1,-1,-1,-1,-1,-1,-1,-1,-1,-1,-1,-1,-1,-1,-1,-1,-1,-1,-1,-1,-1,-1,-1,-1,-1,-1,-1,-1,-1,-1,-1,-1,-1,-1,-1,-1,-1],"split_conditions":[1.013342E0,1E0,2.393E0,2.3023601E-1,7.445E-1,6.1E1,3E0,1.85E-2,3E1,1.018097E0,1.015799E0,1.68E1,1.020364E0,4.3E1,3.7E-2,1.2E1,3E0,5.12E-1,4.85E1,7.8E0,1.7255E0,1.091368E0,1.2E1,2E0,3.76E-1,1E0,-6.522278E-2,1.1486081E-1,1E0,1.72E2,1.2E1,1.0667E1,1.1E1,2.68E1,1.2E2,3E0,3E0,-1.3984455E-1,-5.571229E-2,1.14E2,8.7E1,1.033051E0,1.8167262E-1,2.8E1,3E0,1.3667E1,1.04E1,1E0,1.22E1,-1.419033E-1,-1.8826471E-1,-1.1491392E-1,-4.5887176E-2,-1.17196284E-1,1.7465955E-2,-2.710694E-2,3.7278708E-2,3.1166884E-1,5.117047E-2,6.328115E-3,-1.09146014E-1,8.659202E-3,7.030613E-2,2.5928286E-1,2.7305258E-2,1.362649E-1,2.2451876E-2,-6.609529E-2,1.0305952E-1,-2.3996973E-2,1.4741664E-1,2.5252057E-2,-1.2524523E-1,9.2149585E-2,-6.388747E-2,1.8303987E-1,2.6006302E-1,1.3326477E-1,-2.2070706E-2,1.335907E-1,-2.016226E-2,-1.06126904E-1,8.425665E-3,4.8774112E-2,1.9548711E-1,-2.126038E-2,7.559621E-2],"split_indices":[6,6,7,0,7,16,10,7,13,1,6,12,1,28,7,20,22,4,13,15,7,6,26,29,4,24,0,0,31,22,22,14,26,12,22,10,24,0,0,22,22,6,0,22,9,14,14,16,14,0,0,0,0,0,0,0,0,0,0,0,0,0,0,0,0,0,0,0,0,0,0,0,0,0,0,0,0,0,0,0,0,0,0,0,0,0,0],"split_type":[0,0,0,0,0,0,0,0,0,0,0,0,0,0,0,0,0,0,0,0,0,0,0,0,0,0,0,0,0,0,0,0,0,0,0,0,0,0,0,0,0,0,0,0,0,0,0,0,0,0,0,0,0,0,0,0,0,0,0,0,0,0,0,0,0,0,0,0,0,0,0,0,0,0,0,0,0,0,0,0,0,0,0,0,0,0,0],"sum_hessian":[1.071E3,5.71E2,5E2,3.3E1,5.38E2,3.67E2,1.33E2,3.47E2,1.91E2,3.28E2,3.9E1,9.7E1,3.6E1,8.6E1,2.61E2,4.8E1,1.43E2,1.84E2,1.44E2,1.5E1,2.4E1,1.8E1,7.9E1,1.5E1,2.1E1,8.2E1,4E0,5E0,2.56E2,4.1E1,7E0,1.1E1,1.32E2,1.75E2,9E0,1.15E2,2.9E1,1.1E1,4E0,1.3E1,1.1E1,1.4E1,4E0,6.4E1,1.5E1,6E0,9E0,1.5E1,6E0,2.1E1,6.1E1,1.98E2,5.8E1,3.8E1,3E0,3E0,4E0,4E0,7E0,1.11E2,2.1E1,1.2E2,5.5E1,6E0,3E0,9.5E1,2E1,1.7E1,1.2E1,6E0,7E0,3E0,8E0,5E0,9E0,4.2E1,2.2E1,1.2E1,3E0,3E0,3E0,6E0,3E0,3E0,1.2E1,3E0,3E0],"tree_param":{"num_deleted":"0","num_feature":"32","num_nodes":"87","size_leaf_vector":"1"}},{"base_weights":[-2.1245971E-2,-1.1466069E0,1.4809015E0,2.2413659E-1,-1.5025157E0,1.1330733E0,2.6275723E0,-2.106456E0,-5.0643634E-2,1.4222254E0,-4.46516E-1,3.140401E0,7.231898E-1,-3.49105E0,-1.7507485E0,-2.0381966E0,2.3926899E-1,1.2004838E0,3.0273027E0,-1.1364179E0,1.704362E0,3.340806E0,-1.0833185E-3,-3.404307E-1,1.9853948E-1,-1.794277E-1,-6.261387E-2,-1.8637425E0,3.7132237E0,4.423469E-1,-2.996047E0,-2.2436218E0,4.5037913E-1,9.307728E-1,2.6644819E0,-2.7155498E-2,3.6206954E0,3.4924414E-2,-1.291498E0,-3.856718E-2,2.7717786E0,3.5026853E0,3.9374582E-2,6.121304E-1,-1.0888506E0,9.5494136E-2,-9.58524E-2,3.274807E-1,-2.5736212E-3,-9.579875E-2,1.3450411E-1,-1.7423294E-1,-3.295234E-2,-1.367564E-1,-2.88414E-2,4.31514E-2,-4.3074876E-2,7.407548E-2,-1.2214079E-3,-3.7537098E-2,1.5269928E-1,3.5713803E-2,2.0760751E-1,-9.6453026E-2,-3.1139785E-2,2.865528E-2,1.8160975E-1,1.8954778E-1,1.15656756E-1,1.0649835E-1,-2.508912E-2,-9.053417E-2,3.1351388E-2],"categories":[],"categories_nodes":[],"categories_segments":[],"categories_sizes":[],"default_left":[0,0,0,0,0,0,0,0,0,0,0,0,0,0,0,0,0,0,0,0,0,0,0,0,0,0,0,0,0,0,0,0,0,0,0,0,0,0,0,0,0,0,0,0,0,0,0,0,0,0,0,0,0,0,0,0,0,0,0,0,0,0,0,0,0,0,0,0,0,0,0,0,0],"id":17,"left_children":[1,3,5,-1,7,9,11,13,15,17,19,21,23,25,27,29,31,33,35,37,39,41,-1,43,-1,-1,-1,45,47,49,51,53,55,57,59,-1,61,-1,63,-1,65,67,-1,69,71,-1,-1,-1,-1,-1,-1,-1,-1,-1,-1,-1,-1,-1,-1,-1,-1,-1,-1,-1,-1,-1,-1,-1,-1,-1,-1,-1,-1],"loss_changes":[1.8273926E3,1.2449176E3,1.816878E2,0E0,5.1021667E2,1.6369177E2,1.02227356E2,1.9630981E2,9.959694E1,1.0385138E2,8.503497E1,5.3302734E1,8.425291E1,1.36241455E1,2.1004382E2,5.359707E1,8.0159164E1,1.02946594E2,7.82381E1,1.3138073E1,3.913452E1,2.9894714E1,0E0,1.4211917E1,0E0,0E0,0E0,6.8634155E1,7.508416E1,4.2260315E1,1.5973618E1,8.253178E0,7.653171E1,1.1945282E2,5.6832703E1,0E0,4.4917694E1,0E0,1.5852165E1,0E0,1.6836105E1,1.6606445E1,0E0,1.628542E1,1.47597E1,0E0,0E0,0E0,0E0,0E0,0E0,0E0,0E0,0E0,0E0,0E0,0E0,0E0,0E0,0E0,0E0,0E0,0E0,0E0,0E0,0E0,0E0,0E0,0E0,0E0,0E0,0E0,0E0],"parents":[2147483647,0,0,1,1,2,2,4,4,5,5,6,6,7,7,8,8,9,9,10,10,11,11,12,12,13,13,14,14,15,15,16,16,17,17,18,18,19,19,20,20,21,21,23,23,27,27,28,28,29,29,30,30,31,31,32,32,33,33,34,34,36,36,38,38,40,40,41,41,43,43,44,44],"right_children":[2,4,6,-1,8,10,12,14,16,18,20,22,24,26,28,30,32,34,36,38,40,42,-1,44,-1,-1,-1,46,48,50,52,54,56,58,60,-1,62,-1,64,-1,66,68,-1,70,72,-1,-1,-1,-1,-1,-1,-1,-1,-1,-1,-1,-1,-1,-1,-1,-1,-1,-1,-1,-1,-1,-1,-1,-1,-1,-1,-1,-1],"split_conditions":[1.014677E0,1E0,1.02917E0,2.2413659E-1,9.6E0,3E0,4E0,1.85E-2,1.004743E0,4E0,1.02289E0,1.04166E0,1.047216E0,4.3E1,6E0,1.04E1,1.004744E0,5.12E-1,7.96E-1,5.333E0,4E0,8.3E1,-1.0833185E-3,3.034E0,1.9853948E-1,-1.794277E-1,-6.261387E-2,3.7E-2,1.1E1,1.009158E0,1.4667E1,6E1,1E0,2.7E1,2E0,-2.7155498E-2,1.264E0,3.4924414E-2,1.04E1,-3.856718E-2,2E0,1.027786E0,3.9374582E-2,5E0,1.019837E0,9.5494136E-2,-9.58524E-2,3.274807E-1,-2.5736212E-3,-9.579875E-2,1.3450411E-1,-1.7423294E-1,-3.295234E-2,-1.367564E-1,-2.88414E-2,4.31514E-2,-4.3074876E-2,7.407548E-2,-1.2214079E-3,-3.7537098E-2,1.5269928E-1,3.5713803E-2,2.0760751E-1,-9.6453026E-2,-3.1139785E-2,2.865528E-2,1.8160975E-1,1.8954778E-1,1.15656756E-1,1.0649835E-1,-2.508912E-2,-9.053417E-2,3.1351388E-2],"split_indices":[6,6,6,0,15,10,9,7,6,24,1,1,6,28,21,14,1,4,2,14,10,27,0,7,0,0,0,7,20,1,14,27,11,22,21,0,7,0,14,0,9,1,0,20,1,0,0,0,0,0,0,0,0,0,0,0,0,0,0,0,0,0,0,0,0,0,0,0,0,0,0,0,0],"split_type":[0,0,0,0,0,0,0,0,0,0,0,0,0,0,0,0,0,0,0,0,0,0,0,0,0,0,0,0,0,0,0,0,0,0,0,0,0,0,0,0,0,0,0,0,0,0,0,0,0,0,0,0,0,0,0,0,0,0,0,0,0,0,0,0,0,0,0,0,0,0,0,0,0],"sum_hessian":[1.079E3,6.17E2,4.62E2,3.6E1,5.81E2,3.56E2,1.06E2,4.1E2,1.71E2,3.01E2,5.5E1,8.3E1,2.3E1,8.2E1,3.28E2,2.1E1,1.5E2,2.66E2,3.5E1,4.2E1,1.3E1,7.8E1,5E0,1.8E1,5E0,7.8E1,4E0,3.22E2,6E0,6E0,1.5E1,1.1E1,1.39E2,2.26E2,4E1,5E0,3E1,3E0,3.9E1,4E0,9E0,7.3E1,5E0,8E0,1E1,4E0,3.18E2,3E0,3E0,3E0,3E0,1.2E1,3E0,8E0,3E0,1.06E2,3.3E1,1.43E2,8.3E1,4E0,3.6E1,5E0,2.5E1,1.9E1,2E1,3E0,6E0,5.7E1,1.6E1,3E0,5E0,7E0,3E0],"tree_param":{"num_deleted":"0","num_feature":"32","num_nodes":"73","size_leaf_vector":"1"}},{"base_weights":[-4.7475968E-2,-1.6529614E0,1.1677021E0,2.0423703E0,-1.882795E0,1.607144E-1,1.6012182E0,2.387681E-1,-1.4784169E0,-2.3236675E0,-1.0403545E0,1.7240193E0,-2.6004338E-1,5.176532E-1,1.9902223E0,-3.2519917E0,1.6625623E-1,-3.260847E0,-1.9875003E0,-1.7403604E0,-1.7548513E-1,-4.8214126E-1,2.206603E0,-8.216218E-1,1.056085E0,1.3377818E0,-4.4874963E-1,3.7873738E0,1.811077E0,-7.953228E-2,-1.8683812E-1,-1.8296587E-1,-8.639342E-1,-3.353307E-2,-2.1649644E0,-5.2191937E-1,-2.863864E0,3.164893E0,-5.9687465E-1,3.7216354E-2,-6.8344384E-2,2.0958197E-1,1.5109532E0,-9.855931E-1,1.327461E-1,2.39592E0,-4.5355704E-1,9.5196843E-1,3.5468876E0,1.0460851E0,-1.225225E0,3.5669666E-2,4.269979E0,3.297498E0,1.6656605E0,2.0129393E-1,-1.4705959E-1,-7.942915E-2,3.0975252E-1,-1.1840262E-1,-6.381354E-2,-8.1827745E-2,4.5675535E-2,-2.9315162E-2,-1.5384813E-1,3.6448005E-1,-3.83926E-2,-5.857063E-2,1.0628077E-2,1.2616956E-1,-1.8064337E-2,-6.470558E-2,4.347604E-2,4.1711546E-2,1.4949481E-1,1.0943174E-1,-4.929683E-2,1.04770206E-1,6.309046E-3,8.6720265E-2,2.0820306E-1,-1.4465173E-3,2.0309572E-1,-9.971326E-2,1.4439478E-2,2.2999685E-1,7.351031E-2,2.1101318E-1,1.6088868E-2,-7.182383E-2,8.650492E-2],"categories":[],"categories_nodes":[],"categories_segments":[],"categories_sizes":[],"default_left":[0,0,0,0,0,0,0,0,0,0,0,0,0,0,0,0,0,0,0,0,0,0,0,0,0,0,0,0,0,0,0,0,0,0,0,0,0,0,0,0,0,0,0,0,0,0,0,0,0,0,0,0,0,0,0,0,0,0,0,0,0,0,0,0,0,0,0,0,0,0,0,0,0,0,0,0,0,0,0,0,0,0,0,0,0,0,0,0,0,0,0],"id":18,"left_children":[1,3,5,7,9,11,13,-1,15,17,19,21,23,25,27,29,-1,31,33,35,37,39,41,43,45,47,49,51,53,-1,-1,-1,55,57,59,61,63,65,67,-1,-1,-1,69,71,-1,73,75,77,79,81,83,-1,85,87,89,-1,-1,-1,-1,-1,-1,-1,-1,-1,-1,-1,-1,-1,-1,-1,-1,-1,-1,-1,-1,-1,-1,-1,-1,-1,-1,-1,-1,-1,-1,-1,-1,-1,-1,-1,-1],"loss_changes":[2.1284663E3,4.0302197E2,2.708374E2,2.7648386E2,1.6211658E2,1.2410958E2,1.8190564E2,0E0,1.21566E2,8.48833E1,9.292828E1,4.3650177E1,1.1099498E2,9.253897E1,9.584326E1,2.1098633E0,0E0,6.847107E1,7.482733E1,1.1486371E2,1.0042107E2,9.698319E0,3.9236008E1,6.2472275E1,9.21069E1,5.0318542E1,6.3959606E1,3.849237E1,5.762323E1,0E0,0E0,0E0,1.3372969E2,1.9387076E2,3.2713318E1,6.869422E1,1.9551147E1,1.3536871E2,2.954726E1,0E0,0E0,0E0,5.0195366E1,5.8931313E1,0E0,1.976828E1,3.310413E1,5.1668518E1,2.845375E0,6.1716713E1,4.2492085E1,0E0,1.5408508E1,6.728934E1,5.605713E1,0E0,0E0,0E0,0E0,0E0,0E0,0E0,0E0,0E0,0E0,0E0,0E0,0E0,0E0,0E0,0E0,0E0,0E0,0E0,0E0,0E0,0E0,0E0,0E0,0E0,0E0,0E0,0E0,0E0,0E0,0E0,0E0,0E0,0E0,0E0,0E0],"parents":[2147483647,0,0,1,1,2,2,3,3,4,4,5,5,6,6,8,8,9,9,10,10,11,11,12,12,13,13,14,14,15,15,17,17,18,18,19,19,20,20,21,21,22,22,23,23,24,24,25,25,26,26,27,27,28,28,32,32,33,33,34,34,35,35,36,36,37,37,38,38,42,42,43,43,45,45,46,46,47,47,48,48,49,49,50,50,52,52,53,53,54,54],"right_children":[2,4,6,8,10,12,14,-1,16,18,20,22,24,26,28,30,-1,32,34,36,38,40,42,44,46,48,50,52,54,-1,-1,-1,56,58,60,62,64,66,68,-1,-1,-1,70,72,-1,74,76,78,80,82,84,-1,86,88,90,-1,-1,-1,-1,-1,-1,-1,-1,-1,-1,-1,-1,-1,-1,-1,-1,-1,-1,-1,-1,-1,-1,-1,-1,-1,-1,-1,-1,-1,-1,-1,-1,-1,-1,-1,-1],"split_conditions":[8E0,1E0,5E0,1E0,4E0,9E0,1.1E1,2.387681E-1,1.67E2,7.2E-2,6E0,3E0,1.97E0,1E0,1E0,2.8E-1,1.6625623E-1,4.63E1,1.616E-1,3.56E1,7.5E0,2E0,5E0,1.044E0,3E0,1.4667E1,9.72E-1,2.67E1,2.35E1,-7.953228E-2,-1.8683812E-1,-1.8296587E-1,8E0,1.23E-1,4E0,8.167E0,5E0,5E0,9E0,3.7216354E-2,-6.8344384E-2,2.0958197E-1,3E-3,1E1,1.327461E-1,7.4E0,1E1,3.56E1,3.34E1,1E0,1.376E0,3.5669666E-2,4E0,1.4E1,2.37E1,2.0129393E-1,-1.4705959E-1,-7.942915E-2,3.0975252E-1,-1.1840262E-1,-6.381354E-2,-8.1827745E-2,4.5675535E-2,-2.9315162E-2,-1.5384813E-1,3.6448005E-1,-3.83926E-2,-5.857063E-2,1.0628077E-2,1.2616956E-1,-1.8064337E-2,-6.470558E-2,4.347604E-2,4.1711546E-2,1.4949481E-1,1.0943174E-1,-4.929683E-2,1.04770206E-1,6.309046E-3,8.6720265E-2,2.0820306E-1,-1.4465173E-3,2.0309572E-1,-9.971326E-2,1.4439478E-2,2.2999685E-1,7.351031E-2,2.1101318E-1,1.6088868E-2,-7.182383E-2,8.650492E-2],"split_indices":[0,8,21,10,21,22,0,0,22,2,0,9,3,10,8,2,0,13,3,13,14,8,27,4,29,25,2,13,13,0,0,0,29,2,24,25,16,26,20,0,0,0,4,26,0,14,0,13,13,23,2,0,29,30,13,0,0,0,0,0,0,0,0,0,0,0,0,0,0,0,0,0,0,0,0,0,0,0,0,0,0,0,0,0,0,0,0,0,0,0,0],"split_type":[0,0,0,0,0,0,0,0,0,0,0,0,0,0,0,0,0,0,0,0,0,0,0,0,0,0,0,0,0,0,0,0,0,0,0,0,0,0,0,0,0,0,0,0,0,0,0,0,0,0,0,0,0,0,0,0,0,0,0,0,0,0,0,0,0,0,0,0,0,0,0,0,0,0,0,0,0,0,0,0,0,0,0,0,0,0,0,0,0,0,0],"sum_hessian":[1.089E3,4.69E2,6.2E2,2.7E1,4.42E2,1.87E2,4.33E2,1.5E1,1.2E1,2.89E2,1.53E2,3.9E1,1.48E2,1.15E2,3.18E2,9E0,3E0,7.4E1,2.15E2,8.4E1,6.9E1,7E0,3.2E1,1.04E2,4.4E1,6.2E1,5.3E1,2.7E1,2.91E2,3E0,6E0,6.3E1,1.1E1,1.8E1,1.97E2,4.1E1,4.3E1,7E0,6.2E1,3E0,4E0,7E0,2.5E1,1E2,4E0,2.3E1,2.1E1,5.4E1,8E0,1.8E1,3.5E1,4E0,2.3E1,2.4E1,2.67E2,3E0,8E0,1.5E1,3E0,1.59E2,3.8E1,2.3E1,1.8E1,4E0,3.9E1,3E0,4E0,3.6E1,2.6E1,1.6E1,9E0,8.6E1,1.4E1,7E0,1.6E1,3E0,1.8E1,2.2E1,3.2E1,3E0,5E0,1.4E1,4E0,2.3E1,1.2E1,2E1,3E0,1.8E1,6E0,5E0,2.62E2],"tree_param":{"num_deleted":"0","num_feature":"32","num_nodes":"91","size_leaf_vector":"1"}},{"base_weights":[9.283058E-3,-1.2637895E0,1.2321461E0,-1.7187622E0,7.87198E-1,7.3897827E-1,2.0335476E0,2.0148292E-1,-1.8484492E0,3.8131216E-1,2.2572885E0,1.9350366E-1,5.1511925E-1,1.5688951E0,2.7510593E0,-2.6363585E0,-1.4944276E0,-3.122754E-1,2.40833E0,-9.567491E-2,3.0587249E0,-1.6804484E-1,6.488369E-1,1.0948669E0,2.6590421E0,3.0578537E0,2.3635283E-1,-1.6472435E0,-3.1121974E0,-1.6488874E0,-3.5612023E-1,9.34347E-1,-9.277797E-1,3.631729E0,-3.8251516E-1,4.30421E0,4.8664623E-1,8.196268E-1,-1.0637678E0,6.2514895E-1,2.1629567E0,-4.4646502E-1,3.3523238E0,1.6260542E0,3.3409762E0,-7.891406E-1,9.8593906E-2,-1.586988E-1,2.0993557E-2,-1.6244711E-1,2.858386E-2,-9.4507955E-2,-4.094681E-2,-1.3444653E-1,1.9006772E-2,1.12499654E-1,-1.7331783E-2,-1.06308006E-1,2.5210786E-3,2.9332718E-1,6.1114985E-2,-1.00935124E-1,6.746506E-2,8.9160904E-2,2.6709023E-1,-5.7360675E-2,9.994222E-2,-6.443356E-3,6.2680155E-2,-9.0566106E-2,7.310548E-3,4.2165603E-2,-4.2512596E-2,2.4871941E-1,6.6774905E-2,-6.008751E-2,3.0462885E-2,1.8790357E-1,6.831788E-2,-1.2701106E-2,1.0809475E-1,1.7873542E-1,6.874387E-2,-1.0702733E-1,3.7977528E-2],"categories":[],"categories_nodes":[],"categories_segments":[],"categories_sizes":[],"default_left":[0,0,0,0,0,0,0,0,0,0,0,0,0,0,0,0,0,0,0,0,0,0,0,0,0,0,0,0,0,0,0,0,0,0,0,0,0,0,0,0,0,0,0,0,0,0,0,0,0,0,0,0,0,0,0,0,0,0,0,0,0,0,0,0,0,0,0,0,0,0,0,0,0,0,0,0,0,0,0,0,0,0,0,0,0],"id":19,"left_children":[1,3,5,7,9,11,13,-1,15,17,19,-1,21,23,25,27,29,31,33,-1,35,-1,37,39,41,43,45,47,49,51,53,55,57,59,61,63,65,67,69,71,73,75,77,79,81,83,-1,-1,-1,-1,-1,-1,-1,-1,-1,-1,-1,-1,-1,-1,-1,-1,-1,-1,-1,-1,-1,-1,-1,-1,-1,-1,-1,-1,-1,-1,-1,-1,-1,-1,-1,-1,-1,-1,-1],"loss_changes":[1.7031324E3,5.0151776E2,2.1903314E2,3.347213E2,5.761477E1,2.4122697E2,6.636328E1,0E0,1.1600305E2,1.10413376E2,7.6047905E1,0E0,1.7062546E2,6.478433E1,6.254016E1,5.700055E1,5.1983826E1,4.613765E1,6.967554E1,0E0,5.556813E1,0E0,9.3007996E1,4.5306E1,8.546335E1,2.4159729E1,1.9353786E1,1.4334958E2,4.6187378E1,5.111609E1,6.457131E1,3.448633E1,4.699749E1,6.821411E1,2.255887E1,2.1863602E1,1.9588139E1,1.1829758E2,2.6496052E1,2.1960976E1,5.849434E1,7.111149E0,2.0650787E1,1.465308E1,2.2657715E1,1.6276228E1,0E0,0E0,0E0,0E0,0E0,0E0,0E0,0E0,0E0,0E0,0E0,0E0,0E0,0E0,0E0,0E0,0E0,0E0,0E0,0E0,0E0,0E0,0E0,0E0,0E0,0E0,0E0,0E0,0E0,0E0,0E0,0E0,0E0,0E0,0E0,0E0,0E0,0E0,0E0],"parents":[2147483647,0,0,1,1,2,2,3,3,4,4,5,5,6,6,8,8,9,9,10,10,12,12,13,13,14,14,15,15,16,16,17,17,18,18,20,20,22,22,23,23,24,24,25,25,26,26,27,27,28,28,29,29,30,30,31,31,32,32,33,33,34,34,35,35,36,36,37,37,38,38,39,39,40,40,41,41,42,42,43,43,44,44,45,45],"right_children":[2,4,6,8,10,12,14,-1,16,18,20,-1,22,24,26,28,30,32,34,-1,36,-1,38,40,42,44,46,48,50,52,54,56,58,60,62,64,66,68,70,72,74,76,78,80,82,84,-1,-1,-1,-1,-1,-1,-1,-1,-1,-1,-1,-1,-1,-1,-1,-1,-1,-1,-1,-1,-1,-1,-1,-1,-1,-1,-1,-1,-1,-1,-1,-1,-1,-1,-1,-1,-1,-1,-1],"split_conditions":[9E0,1.015705E0,1.020725E0,1E0,2.3635E0,1E0,1.6E1,2.0148292E-1,3E0,5E0,1.44E1,1.9350366E-1,1.000462E0,1.031741E0,4E0,3E0,9E0,2.15E1,2.3E1,-9.567491E-2,4E0,-1.6804484E-1,4.71E1,6.1E1,1.58E1,1.574E0,1.6E1,1.77E2,8.45E-1,1.25E-1,3.95E-1,1.3E1,2.2E1,8E0,5.333E0,3E0,6E0,1.055E0,1E0,6.8E1,1.0667E1,1.2623E1,7.3E1,6E0,1E0,1.8E1,9.8593906E-2,-1.586988E-1,2.0993557E-2,-1.6244711E-1,2.858386E-2,-9.4507955E-2,-4.094681E-2,-1.3444653E-1,1.9006772E-2,1.12499654E-1,-1.7331783E-2,-1.06308006E-1,2.5210786E-3,2.9332718E-1,6.1114985E-2,-1.00935124E-1,6.746506E-2,8.9160904E-2,2.6709023E-1,-5.7360675E-2,9.994222E-2,-6.443356E-3,6.2680155E-2,-9.0566106E-2,7.310548E-3,4.2165603E-2,-4.2512596E-2,2.4871941E-1,6.6774905E-2,-6.008751E-2,3.0462885E-2,1.8790357E-1,6.831788E-2,-1.2701106E-2,1.0809475E-1,1.7873542E-1,6.874387E-2,-1.0702733E-1,3.7977528E-2],"split_indices":[0,6,6,6,7,6,0,0,0,29,12,0,6,6,9,28,20,12,29,0,9,0,13,27,12,2,22,22,7,19,2,27,27,15,15,16,0,7,23,22,15,7,27,21,18,0,0,0,0,0,0,0,0,0,0,0,0,0,0,0,0,0,0,0,0,0,0,0,0,0,0,0,0,0,0,0,0,0,0,0,0,0,0,0,0],"split_type":[0,0,0,0,0,0,0,0,0,0,0,0,0,0,0,0,0,0,0,0,0,0,0,0,0,0,0,0,0,0,0,0,0,0,0,0,0,0,0,0,0,0,0,0,0,0,0,0,0,0,0,0,0,0,0,0,0,0,0,0,0,0,0,0,0,0,0,0,0,0,0,0,0,0,0,0,0,0,0,0,0,0,0,0,0],"sum_hessian":[1.092E3,5.35E2,5.57E2,4.38E2,9.7E1,3.46E2,2.11E2,9E0,4.29E2,7.7E1,2E1,2.2E1,3.24E2,1.3E2,8.1E1,1.31E2,2.98E2,5.8E1,1.9E1,3E0,1.7E1,1E1,3.14E2,9.2E1,3.8E1,7.2E1,9E0,4.4E1,8.7E1,2.62E2,3.6E1,1.9E1,3.9E1,1.3E1,6E0,1.1E1,6E0,2.86E2,2.8E1,6.5E1,2.7E1,7E0,3.1E1,1.3E1,5.9E1,6E0,3E0,2.5E1,1.9E1,8.4E1,3E0,2.02E2,6E1,8E0,2.8E1,9E0,1E1,1.7E1,2.2E1,6E0,7E0,3E0,3E0,4E0,7E0,3E0,3E0,9E1,1.96E2,1.7E1,1.1E1,5.7E1,8E0,5E0,2.2E1,4E0,3E0,2.5E1,6E0,3E0,1E1,5.2E1,7E0,3E0,3E0],"tree_param":{"num_deleted":"0","num_feature":"32","num_nodes":"85","size_leaf_vector":"1"}},{"base_weights":[9.644555E-2,-1.1229463E0,1.2960323E0,2.0593593E0,-1.3432182E0,3.216664E0,1.0758096E0,4.2832685E0,-9.882311E-1,-2.0546565E0,-4.0243492E-1,4.1400266E0,1.4366124E0,-4.5782506E-1,1.4575002E0,2.2941859E-1,1.1946314E-1,-2.3109353E0,1.7788076E-1,-2.345488E0,-1.1622566E0,-6.5642494E-1,1.2534485E0,2.1325055E-1,1.0213281E-1,1.6770206E-1,-1.3467715E-3,-1.3696826E0,4.996632E-1,1.5236818E0,-2.000674E0,-3.2341523E0,2.874205E-2,-2.4917555E0,-9.843383E-1,-6.5625876E-1,-2.4080482E0,-5.0412434E-1,-2.44027E0,2.3454459E0,-5.8000165E-1,1.1479898E-1,-1.2774895E0,-1.8867755E0,7.2918886E-1,-2.0832222E0,9.6857995E-1,7.755364E-1,1.8271023E0,-1.574545E-1,-3.2492639E-3,-1.8510482E-1,-8.0335625E-2,-3.8641386E-2,-1.3041839E-1,2.5199544E-1,-1.2589297E-1,-7.1341656E-2,4.191583E-2,-1.4479144E-1,-1.3399248E-2,9.564403E-2,-2.9923147E-2,-1.6288345E-1,-7.6969243E-3,1.9023311E-1,1.5067721E-2,-1.17680065E-1,5.1154196E-2,-9.517742E-2,-3.2360103E-2,2.650472E-2,-1.0431403E-1,-2.5110606E-2,1.15365624E-1,-4.361874E-2,-1.3176279E-1,1.0827901E-1,1.5802128E-2,1.8678231E-2,1.3431613E-1,-3.9111752E-2,9.483095E-2],"categories":[],"categories_nodes":[],"categories_segments":[],"categories_sizes":[],"default_left":[0,0,0,0,0,0,0,0,0,0,0,0,0,0,0,0,0,0,0,0,0,0,0,0,0,0,0,0,0,0,0,0,0,0,0,0,0,0,0,0,0,0,0,0,0,0,0,0,0,0,0,0,0,0,0,0,0,0,0,0,0,0,0,0,0,0,0,0,0,0,0,0,0,0,0,0,0,0,0,0,0,0,0],"id":20,"left_children":[1,3,5,7,9,11,13,15,17,19,21,23,25,27,29,-1,-1,31,-1,33,35,37,39,-1,-1,-1,41,43,45,47,49,51,-1,53,55,57,59,61,63,65,67,-1,69,71,73,75,77,79,81,-1,-1,-1,-1,-1,-1,-1,-1,-1,-1,-1,-1,-1,-1,-1,-1,-1,-1,-1,-1,-1,-1,-1,-1,-1,-1,-1,-1,-1,-1,-1,-1,-1,-1],"loss_changes":[1.6222006E3,3.883011E2,2.329779E2,2.4822516E2,3.4386743E2,8.773944E1,2.951103E2,1.1723938E0,1.0442638E2,7.33186E1,9.4611664E1,9.871216E-1,5.7905376E1,8.886677E1,9.528192E1,0E0,0E0,3.64937E1,0E0,4.1347412E1,4.5066917E1,5.1475838E1,6.1424053E1,0E0,0E0,0E0,4.1045403E1,5.7812004E1,6.257568E1,8.8476074E1,1.7579163E1,1.6672974E0,0E0,3.767285E1,2.2517091E2,6.3386925E1,2.114547E1,4.218781E1,2.7531197E1,5.5526115E1,3.6526714E1,0E0,2.3193922E0,2.1357407E1,2.2535088E1,3.0484962E0,3.290234E1,8.8094025E1,5.2454895E1,0E0,0E0,0E0,0E0,0E0,0E0,0E0,0E0,0E0,0E0,0E0,0E0,0E0,0E0,0E0,0E0,0E0,0E0,0E0,0E0,0E0,0E0,0E0,0E0,0E0,0E0,0E0,0E0,0E0,0E0,0E0,0E0,0E0,0E0],"parents":[2147483647,0,0,1,1,2,2,3,3,4,4,5,5,6,6,7,7,8,8,9,9,10,10,11,11,12,12,13,13,14,14,17,17,19,19,20,20,21,21,22,22,26,26,27,27,28,28,29,29,30,30,31,31,33,33,34,34,35,35,36,36,37,37,38,38,39,39,40,40,42,42,43,43,44,44,45,45,46,46,47,47,48,48],"right_children":[2,4,6,8,10,12,14,16,18,20,22,24,26,28,30,-1,-1,32,-1,34,36,38,40,-1,-1,-1,42,44,46,48,50,52,-1,54,56,58,60,62,64,66,68,-1,70,72,74,76,78,80,82,-1,-1,-1,-1,-1,-1,-1,-1,-1,-1,-1,-1,-1,-1,-1,-1,-1,-1,-1,-1,-1,-1,-1,-1,-1,-1,-1,-1,-1,-1,-1,-1,-1,-1],"split_conditions":[9E0,1E0,1E0,1E0,7.445E-1,1E0,1.055E0,1.1E1,8E0,5.2E-2,1.974E0,2.667E-1,5.1E-2,7.667E0,2E0,2.2941859E-1,1.1946314E-1,1.41E-1,1.7788076E-1,5E0,2E0,4E0,3E0,2.1325055E-1,1.0213281E-1,1.6770206E-1,1.333E0,6E0,5.16E-1,1.2E1,1.7E1,5E0,2.874205E-2,1.75E0,2E0,3E0,5.08E-1,1.00028E0,1.107E0,1.010516E0,1.013855E0,1.1479898E-1,1.797E0,6E0,4.9E1,1.010151E0,1.0889E1,2.423E0,2E0,-1.574545E-1,-3.2492639E-3,-1.8510482E-1,-8.0335625E-2,-3.8641386E-2,-1.3041839E-1,2.5199544E-1,-1.2589297E-1,-7.1341656E-2,4.191583E-2,-1.4479144E-1,-1.3399248E-2,9.564403E-2,-2.9923147E-2,-1.6288345E-1,-7.6969243E-3,1.9023311E-1,1.5067721E-2,-1.17680065E-1,5.1154196E-2,-9.517742E-2,-3.2360103E-2,2.650472E-2,-1.0431403E-1,-2.5110606E-2,1.15365624E-1,-4.361874E-2,-1.3176279E-1,1.0827901E-1,1.5802128E-2,1.8678231E-2,1.3431613E-1,-3.9111752E-2,9.483095E-2],"split_indices":[0,8,8,10,7,10,7,26,23,4,7,19,7,25,17,0,0,4,0,24,10,9,10,0,0,0,25,30,7,0,0,0,0,14,28,24,7,1,7,1,1,0,7,16,16,1,15,7,14,0,0,0,0,0,0,0,0,0,0,0,0,0,0,0,0,0,0,0,0,0,0,0,0,0,0,0,0,0,0,0,0,0,0],"split_type":[0,0,0,0,0,0,0,0,0,0,0,0,0,0,0,0,0,0,0,0,0,0,0,0,0,0,0,0,0,0,0,0,0,0,0,0,0,0,0,0,0,0,0,0,0,0,0,0,0,0,0,0,0,0,0,0,0,0,0,0,0,0,0,0,0,0,0,0,0,0,0,0,0,0,0,0,0,0,0,0,0,0,0],"sum_hessian":[1.107E3,5.49E2,5.58E2,3.5E1,5.14E2,5.6E1,5.02E2,2E1,1.5E1,2.92E2,2.22E2,3.6E1,2E1,1E2,4.02E2,1.6E1,4E0,1.2E1,3E0,2.19E2,7.3E1,1.93E2,2.9E1,3.3E1,3E0,8E0,1.2E1,5.1E1,4.9E1,3.95E2,7E0,9E0,3E0,1.97E2,2.2E1,5.3E1,2E1,1.79E2,1.4E1,1.8E1,1.1E1,4E0,8E0,4.1E1,1E1,7E0,4.2E1,1.15E2,2.8E2,4E0,3E0,6E0,3E0,1.3E1,1.84E2,4E0,1.8E1,3.5E1,1.8E1,1.6E1,4E0,6E0,1.73E2,1E1,4E0,1E1,8E0,5E0,6E0,3E0,5E0,3E0,3.8E1,6E0,4E0,3E0,4E0,1.4E1,2.8E1,9.6E1,1.9E1,7E0,2.73E2],"tree_param":{"num_deleted":"0","num_feature":"32","num_nodes":"83","size_leaf_vector":"1"}},{"base_weights":[-5.153923E-2,-9.589081E-1,1.3814961E0,-1.3933212E0,5.1243883E-1,8.3375204E-1,2.1092324E0,1.8054022E-1,-1.5503525E0,8.564444E-2,2.5938714E0,1.7651385E-1,5.760804E-1,2.29383E0,6.708316E-1,-2.8045652E0,-1.2763203E0,-3.6891064E-1,1.5198623E0,3.313997E0,-5.4672804E-2,-1.2439474E0,8.331452E-1,1.4937292E0,2.6335704E0,1.488241E0,-9.45665E-1,-2.8986287E0,-4.0528956E-3,-1.6708596E0,-7.355439E-1,1.6393985E-1,-5.1861507E-1,2.1311961E-1,1.0737915E0,-3.391696E-2,3.980068E0,-6.280495E-2,-2.1258788E0,1.0464629E0,-7.3923385E-1,2.0455823E0,5.6367064E-1,2.8216364E0,1.2418395E0,-1.9342517E-2,1.9892514E0,-8.7930076E-2,1.5346098E-2,-9.415795E-2,-1.5349631E-1,1.2686746E-1,-8.9531474E-2,1.8538062E-1,-4.302145E-2,-5.336342E-2,1.4828037E-2,2.236663E-2,1.6481261E-1,2.2024031E-1,9.549201E-2,-1.02394976E-1,3.687567E-2,-1.2124276E-1,-3.113681E-2,3.4188107E-2,1.22850195E-1,3.0368182E-3,-7.721327E-2,1.1635307E-1,-2.180835E-2,-5.0121814E-2,5.7626765E-2,1.723543E-1,1.1611246E-1,-3.2995347E-2,1.2914968E-1,1.2265789E-1,2.2407472E-2],"categories":[],"categories_nodes":[],"categories_segments":[],"categories_sizes":[],"default_left":[0,0,0,0,0,0,0,0,0,0,0,0,0,0,0,0,0,0,0,0,0,0,0,0,0,0,0,0,0,0,0,0,0,0,0,0,0,0,0,0,0,0,0,0,0,0,0,0,0,0,0,0,0,0,0,0,0,0,0,0,0,0,0,0,0,0,0,0,0,0,0,0,0,0,0,0,0,0,0],"id":21,"left_children":[1,3,5,7,9,11,13,-1,15,17,19,-1,21,23,25,27,29,31,33,35,-1,37,39,41,43,45,47,49,-1,51,53,-1,55,-1,57,-1,59,61,63,65,67,69,71,73,75,-1,77,-1,-1,-1,-1,-1,-1,-1,-1,-1,-1,-1,-1,-1,-1,-1,-1,-1,-1,-1,-1,-1,-1,-1,-1,-1,-1,-1,-1,-1,-1,-1,-1],"loss_changes":[1.4186425E3,4.2768115E2,1.6685486E2,4.1107318E2,1.3569444E2,1.6680705E2,4.65213E1,0E0,1.6861145E2,8.400787E1,7.266254E1,0E0,1.0537029E2,3.955841E1,3.0476849E1,2.2565369E1,8.688776E1,5.5216072E1,3.3347313E1,6.1201782E1,0E0,2.903371E1,6.651515E1,2.4509758E1,2.5548767E1,1.4861149E1,8.685944E0,9.178345E0,0E0,1.2449933E2,1.0084972E2,0E0,4.280516E1,0E0,3.7509327E1,0E0,8.294312E0,2.2163551E1,5.68042E0,8.682753E1,1.5549824E1,2.267035E1,1.9599848E1,2.2292175E1,3.996256E1,0E0,7.47974E0,0E0,0E0,0E0,0E0,0E0,0E0,0E0,0E0,0E0,0E0,0E0,0E0,0E0,0E0,0E0,0E0,0E0,0E0,0E0,0E0,0E0,0E0,0E0,0E0,0E0,0E0,0E0,0E0,0E0,0E0,0E0,0E0],"parents":[2147483647,0,0,1,1,2,2,3,3,4,4,5,5,6,6,8,8,9,9,10,10,12,12,13,13,14,14,15,15,16,16,17,17,18,18,19,19,21,21,22,22,23,23,24,24,25,25,26,26,27,27,29,29,30,30,32,32,34,34,36,36,37,37,38,38,39,39,40,40,41,41,42,42,43,43,44,44,46,46],"right_children":[2,4,6,8,10,12,14,-1,16,18,20,-1,22,24,26,28,30,32,34,36,-1,38,40,42,44,46,48,50,-1,52,54,-1,56,-1,58,-1,60,62,64,66,68,70,72,74,76,-1,78,-1,-1,-1,-1,-1,-1,-1,-1,-1,-1,-1,-1,-1,-1,-1,-1,-1,-1,-1,-1,-1,-1,-1,-1,-1,-1,-1,-1,-1,-1,-1,-1],"split_conditions":[1.1E1,1.015705E0,1.020725E0,1E0,1.028788E0,1E0,4E0,1.8054022E-1,1.000162E0,1.1E-1,5E0,1.7651385E-1,7.2E0,5E0,3E-3,5.8E1,6E0,1E0,6E0,2.37E1,-5.4672804E-2,3.18E1,4.66E1,1.026844E0,5.2E1,1.02204E0,1.7E1,1.6E1,-4.0528956E-3,1.75E0,1.000594E0,1.6393985E-1,4.1E1,2.1311961E-1,1.3333E1,-3.391696E-2,1.014093E0,1.004195E0,3.3E1,4.23E1,1.021897E0,6.8E1,1.029117E0,1.026726E0,1.030209E0,-1.9342517E-2,1.3667E1,-8.7930076E-2,1.5346098E-2,-9.415795E-2,